#ifndef MODEL_PARAMS_H
#define MODEL_PARAMS_H

// Layer: layer1.0.weight (4D array)
static const float layer1_0_W[][][][] = {
    [0.05991119518876076, 0.224186509847641, -0.09831482917070389], [0.15575215220451355, 0.2054702490568161, 0.3143419027328491], [0.01075424812734127, -0.03838374465703964, 0.06140642985701561],
    [0.09778040647506714, -0.27290213108062744, -0.03154238313436508], [0.006724605802446604, 0.13210180401802063, -0.3196618854999542], [-0.10248126089572906, 0.33361393213272095, 0.11905821412801743],
    [-0.28019464015960693, -0.08937166631221771, -0.22984682023525238], [0.219957172870636, -0.18307539820671082, 0.05655170604586601], [-0.02783391624689102, -0.24500992894172668, 0.2632763087749481],
    [0.06467024236917496, 0.14410938322544098, -0.10273339599370956], [-0.0646064504981041, -0.07778262346982956, 0.1935967057943344], [-0.0659468024969101, 0.2825547754764557, -0.06862907856702805],
    [-0.24345962703227997, -0.24082310497760773, -0.02973502315580845], [-0.23863807320594788, -0.06414462625980377, -0.03581204265356064], [-0.03508080169558525, -0.3234941363334656, 0.2429664582014084],
    [0.15909259021282196, 0.1598266065120697, -0.024414436891674995], [-0.2632770538330078, 0.25576093792915344, 0.1601436883211136], [-0.1734512448310852, 0.035505276173353195, 0.042428188025951385]
};

// Layer: layer1.0.bias (1D array)
static const float layer1_0_B[] = { 0.032824743539094925, 0.29025518894195557, 0.21279890835285187, -0.15743757784366608, 0.2218354493379593, -0.0016595189226791263 };

// Layer: layer1.1.weight (4D array)
static const float layer1_1_W[][][][] = {
    [0.10669385641813278, 0.018289830535650253, 0.10344516485929489], [-0.10384119302034378, 0.13784921169281006, -0.09390533715486526], [-0.07134518772363663, 0.1366611123085022, 0.1340620368719101],
    [-0.03123759850859642, 0.07836774736642838, -0.08303428441286087], [-0.011513992212712765, 0.11614018678665161, 0.0016224695136770606], [-0.06417365372180939, 0.13402046263217926, -0.10785268247127533],
    [-0.035607073456048965, 0.084895059466362, -0.06726396828889847], [-0.012433765456080437, -0.02108350209891796, -0.08542581647634506], [-0.11252371966838837, 0.01567159593105316, 0.03132789209485054],
    [-0.04576417803764343, 0.09047951549291611, -0.10203486680984497], [0.045516446232795715, -0.04662197083234787, 0.09982585906982422], [0.11259693652391434, 0.05781455338001251, 0.0672258585691452],
    [0.016129225492477417, -0.11538317054510117, -0.050301503390073776], [-0.0930478647351265, 0.008181722834706306, 0.023215150460600853], [0.06844828277826309, -0.06650986522436142, 0.06661586463451385],
    [0.1463954597711563, 0.11292658001184464, -0.006478544324636459], [0.000548487703781575, -0.11728853732347488, -0.0834425687789917], [0.014057784341275692, -0.09857292473316193, 0.10899385809898376],
    [0.13299758732318878, 0.0029556546360254288, -0.01109362207353115], [-0.0451979786157608, 0.08580683916807175, 0.03585908189415932], [0.021832088008522987, -0.11325696855783463, 0.06691683083772659],
    [0.10680582374334335, -0.12170465290546417, -0.04346884787082672], [-0.03198816627264023, 0.08843561261892319, 0.03359353914856911], [0.03481101989746094, 0.03550168499350548, 0.07324057072401047],
    [0.020620670169591904, -0.07006345689296722, -0.07261626422405243], [-0.09977758675813675, -0.07353758066892624, 0.06054207682609558], [0.047765567898750305, 0.047481101006269455, -0.10035166889429092],
    [0.02043352834880352, 0.020098568871617317, 0.09646031260490417], [-0.020130908116698265, -0.05381308123469353, -0.025349313393235207], [-0.11048822104930878, 0.11431871354579926, 0.051846396178007126],
    [-0.15417565405368805, -0.04540059715509415, 0.10075169056653976], [-0.05998130515217781, 0.008869091980159283, -0.05096614733338356], [0.0999576672911644, -0.08518149703741074, -0.0913051888346672],
    [0.04112088307738304, 0.05222630873322487, -0.08715110272169113], [0.08292520046234131, 0.011366810649633408, 0.114346444606781], [-0.0755932405591011, -0.09745142608880997, 0.07982053607702255],
    [0.054169245064258575, -0.08833529055118561, -0.11965468525886536], [0.12308616191148758, -0.12069832533597946, 0.10575080662965775], [0.021571267396211624, -0.10930308699607849, -0.08630245178937912],
    [-0.013843373395502567, -0.1303766816854477, 0.011893780902028084], [0.07243525981903076, 0.12074250727891922, -0.08111967146396637], [0.11860465258359909, 0.01181779708713293, -0.013001515530049801],
    [0.06176258251070976, -0.03166218474507332, 0.03137390315532684], [-0.083979532122612, 0.04736429080367088, 0.11655477434396744], [-0.055850569158792496, -0.08888944238424301, 0.07585998624563217],
    [0.09024357050657272, 0.031307462602853775, 0.04659681394696236], [-0.14395684003829956, 0.04818585887551308, 0.018130378797650337], [-0.13177765905857086, 0.08584100008010864, -0.1373705416917801],
    [-0.05219608172774315, 0.08252467215061188, -0.04423467069864273], [0.09387356042861938, -0.08151626586914062, 0.13271313905715942], [-0.10571696609258652, 0.011907225474715233, 0.047495581209659576],
    [0.01740455999970436, 0.09950245171785355, -0.0005353500600904226], [0.015729757025837898, 0.11994274705648422, -0.1251242756843567], [-0.039642319083213806, 0.08264800906181335, 0.07875199615955353],
    [0.043718818575143814, 0.048339273780584335, 0.011985071934759617], [0.1314942091703415, 0.11036641150712967, -0.04831484332680702], [0.05957615375518799, 0.08774860948324203, -0.09378811717033386],
    [0.02493460103869438, 0.10965484380722046, -0.047424666583538055], [-0.10103783011436462, 0.10140983015298843, -0.04749370738863945], [0.11097455769777298, 0.1177416443824768, -0.09732747822999954],
    [-0.07114344835281372, -0.06122994422912598, -0.09505254030227661], [0.09097067266702652, 0.032901495695114136, -0.0580810122191906], [-0.002697960240766406, 0.023971248418092728, -0.05911342799663544],
    [0.0016290325438603759, -0.04957171529531479, 0.10033927857875824], [-0.030073093250393867, 0.10166298598051071, -0.1037989929318428], [0.08733347058296204, 0.13375134766101837, -0.026306001469492912],
    [-0.09830817580223083, -0.017503762617707253, 0.09981132298707962], [-0.1249895691871643, 0.11651057749986649, -0.04555680602788925], [-0.0974515974521637, 0.027430448681116104, 0.044706638902425766],
    [0.09927034378051758, 0.03152306005358696, -0.07147068530321121], [-0.09974419325590134, 0.00884550716727972, 0.12953157722949982], [-0.01129058189690113, -0.03316718712449074, 0.10033086687326431],
    [-0.0197256151586771, -0.14188502728939056, -0.11162703484296799], [0.015909381210803986, -0.009612808004021645, 0.0355556383728981], [0.08054526895284653, 0.12071962654590607, 0.04970373958349228],
    [0.14737242460250854, 0.11326950043439865, 0.0034311069175601006], [-0.1099284365773201, 0.01717560552060604, -0.007324723061174154], [0.13062185049057007, -0.00154397904407233, 0.1377360224723816],
    [-0.05844280868768692, -0.08495776355266571, -0.027433672919869423], [0.002982798730954528, 0.05275438353419304, 0.09600285440683365], [0.05689014866948128, -0.08540362119674683, 0.08269334584474564],
    [0.01348165888339281, 0.09719578176736832, 0.11047105491161346], [-0.08692003786563873, -0.0022138450294733047, 0.018770085647702217], [-0.13133670389652252, 0.07032251358032227, -0.04137158766388893],
    [0.09581775963306427, 0.053207602351903915, -0.11832254379987717], [-0.04195428267121315, -0.041200365871191025, -0.026323527097702026], [0.034436844289302826, -0.042642172425985336, -0.03818124532699585],
    [-0.11928212642669678, -0.1187935322523117, 0.06194670498371124], [-0.002463701879605651, -0.0634538009762764, -0.11209341883659363], [-0.005054565146565437, 0.06764279305934906, 0.008149185217916965],
    [-0.09021754562854767, -0.09492737799882889, -0.08308672904968262], [0.10451307147741318, -0.018764017149806023, 0.10617592930793762], [-0.09753233939409256, -0.055137306451797485, 0.03471405804157257],
    [0.01363412942737341, 0.07672107964754105, 0.05548609793186188], [-0.04823034256696701, -0.05319535732269287, -0.12961290776729584], [-0.06796535104513168, 0.10778547823429108, 0.026136238127946854],
    [-0.0036485716700553894, -3.38690952048637e-05, -0.140219584107399], [0.028929665684700012, 0.022858716547489166, -0.08158142864704132], [-0.06752758473157883, -0.08199209719896317, 0.07912328094244003],
    [0.0473322868347168, -0.11771676689386368, 0.13061106204986572], [-0.04939091205596924, -0.06498374789953232, -0.14303310215473175], [-0.05055953189730644, 0.040288083255290985, -0.05283170938491821],
    [0.04877031594514847, 0.09390049427747726, -0.006739809177815914], [-0.007823377847671509, 0.0288991816341877, 0.005333949811756611], [-0.0166004728525877, 0.13872458040714264, -0.027658211067318916],
    [-0.091786228120327, 0.04948365315794945, 0.04739385470747948], [0.029890988022089005, -0.06931288540363312, -0.0033432317432016134], [0.019459949806332588, 0.07540012151002884, -0.03554435446858406]
};

// Layer: layer1.1.bias (1D array)
static const float layer1_1_B[] = { -0.06915158778429031, 0.08784200251102448, 0.041950665414333344, -0.12418663501739502, 0.049767378717660904, -0.006171684246510267 };

// Layer: layer1.2.weight (1D array)
static const float layer1_2_W[] = { 0.9856882691383362, 1.003379225730896, 0.9778084754943848, 0.98553466796875, 1.0254908800125122, 1.019917607307434 };

// Layer: layer1.2.bias (1D array)
static const float layer1_2_B[] = { -0.03097718581557274, -0.033638473600149155, -0.009275024756789207, -0.026732390746474266, 0.008650853298604488, -0.011181104928255081 };

// Layer: layer2.0.weight (4D array)
static const float layer2_0_W[][][][] = {
    [-0.10663020610809326, 0.09528156369924545, -0.012733597308397293], [0.06261137127876282, 0.10161759704351425, -0.07336629927158356], [-0.06379342079162598, -0.08860096335411072, -0.0344335213303566],
    [-0.06182993948459625, 0.0791788324713707, -0.06334833055734634], [-0.14756563305854797, 0.11076930910348892, -0.13438700139522552], [-0.0371137298643589, -0.1222231462597847, 0.00948877539485693],
    [0.14048433303833008, -0.08335760980844498, -0.03224381431937218], [0.004800672177225351, 0.008309092372655869, -0.058221235871315], [-0.016603177413344383, -0.09375058859586716, 0.10829019546508789],
    [-0.12189953774213791, -0.06199786067008972, 0.07253758609294891], [0.01632435992360115, -0.06779366731643677, 0.06800266355276108], [-0.09343650192022324, 0.050328515470027924, 0.11888551712036133],
    [0.061708129942417145, -0.12004059553146362, -0.07763707637786865], [0.11992882937192917, -0.07128872722387314, 0.023780735209584236], [-0.012846946716308594, 0.05855204164981842, -0.018337978050112724],
    [-0.09439633041620255, 0.04419739171862602, 0.07809198647737503], [0.0437374971807003, 0.13096682727336884, -0.008024792186915874], [0.12875968217849731, 0.011105136945843697, -0.029142385348677635],
    [0.024826928973197937, 0.0033839510288089514, -0.10208752751350403], [0.003091976046562195, 0.020730819553136826, 0.040011581033468246], [0.11432109028100967, -0.005576752591878176, 0.09529035538434982],
    [-0.04403866082429886, -0.03672799840569496, 0.052781783044338226], [-0.04574800282716751, -0.02521030604839325, 0.08771569281816483], [-0.06795454770326614, 0.057168345898389816, -0.07003060728311539],
    [0.08888205885887146, 0.07841438800096512, 0.04904879257082939], [0.0368301123380661, 0.08343953639268875, 0.07392033189535141], [-0.025680633261799812, -0.09644125401973724, -0.06817164272069931],
    [0.06360828131437302, -0.07777257263660431, 0.042144469916820526], [0.13256077468395233, 0.03796111047267914, -0.05305980518460274], [-0.0711032971739769, -0.12135257571935654, -0.12273470312356949],
    [0.11967625468969345, 0.1131550744175911, -0.09712756425142288], [-0.06443022191524506, 0.0685771033167839, -0.0691465213894844], [-0.03365638479590416, -0.08455252647399902, 0.005797539837658405],
    [-0.12265595048666, -0.11273285001516342, -0.04124801605939865], [-0.11108159273862839, -0.1025579497218132, 0.11263001710176468], [0.0922849029302597, 0.13563983142375946, 0.08702699840068817],
    [0.12384161353111267, -0.016828207299113274, -0.05421119183301926], [-0.030892714858055115, 0.12537138164043427, -0.03688923269510269], [0.06941688805818558, -0.030206970870494843, 0.07992908358573914],
    [-0.11452086269855499, -0.13436158001422882, 0.02766973152756691], [0.10434221476316452, 0.05144283547997475, 0.020102137699723244], [0.14367936551570892, 0.0018579204333946109, -0.11813310533761978],
    [-0.05693776160478592, -0.12971654534339905, 0.10663449764251709], [0.048373449593782425, 0.06315393000841141, -0.029905425384640694], [-0.06114419922232628, 0.060913730412721634, 0.012255378998816013],
    [0.012198259122669697, -0.0744049921631813, -0.0892145186662674], [0.03771195188164711, -0.10533487051725388, -0.08687184751033783], [0.11988126486539841, 0.08367035537958145, 0.0644262358546257],
    [0.15041440725326538, 0.06465999037027359, 0.0833989754319191], [0.10572167485952377, -0.08438660949468613, 0.08002357184886932], [-0.11140535771846771, -0.15393419563770294, -0.04702248051762581],
    [0.11521700769662857, -0.08687709271907806, 0.145621657371521], [0.10903675854206085, -0.04310835897922516, -0.0629291832447052], [0.03639746457338333, 0.024222757667303085, 0.034065209329128265],
    [0.03751423954963684, -0.025990772992372513, -0.10035986453294754], [0.051421139389276505, 0.09722016751766205, 0.0038368692621588707], [-0.12984181940555573, 0.011876567266881466, -0.12186581641435623],
    [-0.08360522985458374, 0.10176160931587219, 0.1457546502351761], [-0.008227147161960602, 0.0028860101010650396, 0.10803960263729095], [0.096370168030262, -0.10021134465932846, 0.11347158998250961],
    [-0.05628088116645813, 0.05507717654109001, -0.0413387306034565], [-0.05579112470149994, 0.011760329827666283, -0.09504862874746323], [0.02535216510295868, 0.05121157690882683, -0.05432550981640816],
    [0.019790155813097954, 0.04309132695198059, -0.03509959951043129], [0.08778920769691467, 0.07506095618009567, 0.093787282705307], [-0.055434685200452805, -0.06291431933641434, -0.031681034713983536],
    [0.12940222024917603, 0.0811687484383583, -0.05371122434735298], [0.10815464705228806, 0.016532650217413902, -0.057105157524347305], [0.05986390635371208, 0.010458854958415031, -0.019391225650906563],
    [0.09019483625888824, -0.09218541532754898, 0.009349716827273369], [0.027932927012443542, 0.04349925369024277, -0.05097375437617302], [0.1237860843539238, -0.10609244555234909, 0.09284926950931549],
    [0.03689973056316376, 0.11478695273399353, 0.09849544614553452], [0.12887828052043915, 0.13969680666923523, 0.03428154066205025], [-0.04350649192929268, 0.04109868034720421, 0.1260901540517807],
    [0.056527573615312576, -0.0901426374912262, -0.0655912309885025], [-0.09564481675624847, -0.038173187524080276, 0.0536014661192894], [-0.06942968815565109, -0.09731711447238922, 0.11437342315912247],
    [0.007212833501398563, 0.06359311938285828, -0.07711874693632126], [0.11146306246519089, 0.04785050451755524, -0.07101335376501083], [-0.09125089645385742, 0.059418994933366776, 0.012796813622117043],
    [-0.11231895536184311, 0.1357351690530777, 0.039170701056718826], [-0.09165067970752716, -0.08913572877645493, -0.015575887635350227], [0.05149522423744202, -0.09421682357788086, -0.12052717804908752],
    [-0.03124777227640152, 0.05913863703608513, 0.11351493000984192], [0.11313880234956741, -0.06611371785402298, 0.05789235606789589], [-0.0389183908700943, -0.09947764128446579, 0.05556841567158699],
    [-0.09303460270166397, -0.14195610582828522, -0.06076125055551529], [-0.059437189251184464, 0.10106565803289413, -0.044959377497434616], [-0.09809491038322449, -0.05476927012205124, 0.1207190603017807],
    [-0.1047539934515953, -0.014379180036485195, -0.11900302767753601], [-0.07019487768411636, -0.0027283616364002228, 0.07933510094881058], [-0.08659177273511887, -0.08131381124258041, 0.03456643968820572],
    [-0.1165345311164856, -0.1253420114517212, 0.14667688310146332], [0.10187353938817978, 0.10068538039922714, 0.05428008362650871], [0.021231450140476227, 0.022611450403928757, -0.12668170034885406],
    [-0.11160106956958771, 0.049265407025814056, 0.034535158425569534], [0.02902224101126194, -0.0762101262807846, -0.1379791647195816], [-0.03313854709267616, -0.0018095833947882056, -0.028191514313220978],
    [-0.11451281607151031, -0.001464296830818057, -0.025395603850483894], [-0.10399509966373444, 0.10554246604442596, -0.10390449315309525], [-0.04184642806649208, -0.0919594019651413, 0.0788550153374672],
    [0.11648678034543991, 0.06681221723556519, -0.11687753349542618], [-0.13969892263412476, 0.07737018913030624, 0.03917142376303673], [0.08821941912174225, -0.0751773789525032, 0.01662677899003029],
    [-0.038588594645261765, -0.1265767365694046, 0.02965524233877659], [-0.09497960656881332, -0.0018259796779602766, -0.06885439157485962], [0.10462509095668793, 0.013904438354074955, 0.009234240278601646],
    [-0.050422292202711105, -0.10241800546646118, 0.07081398367881775], [0.09145160019397736, -0.07122988253831863, -0.1191473975777626], [-0.10410967469215393, -0.08643914014101028, -0.055843573063611984],
    [0.013031874783337116, -0.0850815698504448, -0.062451284378767014], [0.013279406353831291, 0.06446331739425659, 0.09155046939849854], [0.006615184247493744, -0.011973585933446884, -0.040266796946525574],
    [-0.1326405555009842, -0.01846197433769703, 0.10633734613656998], [-0.0904655009508133, 0.14040103554725647, 0.011722755618393421], [0.10797879099845886, -0.09961707144975662, 0.11805305629968643],
    [0.01903347298502922, 0.1337217092514038, 0.037708330899477005], [0.12731477618217468, 0.0011854098411276937, 0.09562085568904877], [0.0015900935977697372, -0.03682675585150719, -0.10792558640241623],
    [0.13133922219276428, -0.0007306430488824844, 0.060395244508981705], [0.0625852718949318, -0.05779094621539116, -0.044187989085912704], [-0.07755977660417557, -0.14406299591064453, 0.09190800040960312],
    [-0.028747960925102234, -0.09863127768039703, -0.1388634890317917], [0.010026665404438972, 0.12131816148757935, 0.08277621120214462], [0.029145168140530586, 0.11757683008909225, 0.09381531178951263],
    [-0.000964240578468889, 0.14072196185588837, 0.02785254269838333], [0.13280552625656128, 0.1289103776216507, -0.09748382866382599], [-0.09851248562335968, -0.09977046400308609, 0.05636521428823471],
    [-0.07529393583536148, -0.13001525402069092, -0.09992630779743195], [-0.0594058595597744, 0.027244795113801956, -0.0602860301733017], [0.14447560906410217, 0.0839589536190033, -0.05905524641275406],
    [0.06921082735061646, -0.02881367690861225, -0.073301762342453], [-0.1314397156238556, 0.06817804276943207, -0.006957604084163904], [-0.13513566553592682, 0.08506383746862411, 0.04754706099629402],
    [0.1135624498128891, -0.09869372099637985, 0.05634431540966034], [0.021901287138462067, -0.0949195995926857, -0.1259051412343979], [0.04896451532840729, -0.08980103582143784, -0.04111858829855919],
    [0.07756884396076202, 0.12761084735393524, -0.0987807959318161], [-0.0966910570859909, -0.035569094121456146, 0.12086091935634613], [0.1066337376832962, 0.1265052706003189, -0.029487505555152893],
    [0.12194202840328217, -0.035640899091959, 0.0401683934032917], [0.08633677661418915, 0.020465457811951637, 0.09348083287477493], [0.06455284357070923, 0.09893499314785004, -0.0617484524846077],
    [-0.031095411628484726, -0.06414584070444107, 0.07203469425439835], [-0.07094684988260269, -0.1406770795583725, 0.08410419523715973], [0.07745104283094406, -0.0820268988609314, 0.09316238015890121],
    [0.0947844386100769, -0.05134833976626396, -0.061076994985342026], [-0.11072146892547607, 0.06275545060634613, -0.02907339110970497], [0.027170125395059586, -0.12545375525951385, 0.07673736661672592],
    [0.05753806233406067, 0.013780280947685242, -0.014923511072993279], [-0.04222572594881058, -0.09633833169937134, -0.025617677718400955], [0.04969950020313263, -0.0978756919503212, 0.12530671060085297],
    [0.04470280930399895, -0.10575271397829056, -0.11010019481182098], [-0.11683133244514465, -0.042632415890693665, -0.11018426716327667], [-0.09287125617265701, -0.09978268295526505, 0.01570642739534378],
    [-0.04950153827667236, 0.09476978331804276, 0.13459153473377228], [0.051474690437316895, 0.0467880517244339, 0.0864560529589653], [0.13415859639644623, -0.05927892401814461, -0.01125103048980236],
    [0.0284145325422287, 0.0946357473731041, 0.005232443101704121], [0.11532755196094513, -0.0537983700633049, -0.016607262194156647], [-0.0846276730298996, 0.053541116416454315, 0.04056829959154129],
    [0.10932411998510361, -0.07167507708072662, -0.07057064771652222], [-0.11714481562376022, -0.08644396811723709, -0.099910669028759], [0.13259457051753998, -0.006323325913399458, -0.02899830974638462],
    [-0.09524837881326675, 0.08440233767032623, -0.12883402407169342], [-0.08354320377111435, -0.09792610257863998, 0.013731474056839943], [-0.029175233095884323, 0.029643818736076355, -0.12052082270383835],
    [-0.09851710498332977, -0.07903672009706497, 0.038434289395809174], [0.09215421229600906, -0.0707748755812645, -0.06466725468635559], [0.10885490477085114, -0.10623855143785477, 0.14272911846637726],
    [0.028421694412827492, 0.04718143492937088, -0.00012804908328689635], [-0.08326589316129684, 0.04614048823714256, 0.09470337629318237], [0.0590129978954792, 0.09118322283029556, 0.07007864117622375],
    [0.1327003836631775, -0.10199759900569916, -0.08767642080783844], [0.11249834299087524, 0.053851984441280365, 0.030030105262994766], [0.07880710810422897, 0.05026540905237198, -0.11141010373830795],
    [-0.004026975017040968, 0.06216762214899063, 0.0863071009516716], [0.04178876802325249, 0.12024743109941483, -0.03221068158745766], [0.030568554997444153, 0.062378544360399246, 0.030151452869176865],
    [-0.05822303518652916, -0.08842086046934128, 0.11373183131217957], [-0.07681512087583542, -0.017654772847890854, -0.13840779662132263], [-0.0521264411509037, -0.1292644441127777, -0.023360025137662888],
    [-0.04361039400100708, -0.133581280708313, 0.04299236834049225], [-0.022345617413520813, -0.0737709179520607, -0.12967148423194885], [0.1202259287238121, -0.015011275187134743, -0.030578680336475372],
    [0.037339385598897934, 0.05049266293644905, -0.04592951014637947], [-0.10181724280118942, 0.11334069818258286, -0.042360998690128326], [0.048720113933086395, 0.043646663427352905, 0.1011088490486145],
    [0.10744945704936981, -0.01473702397197485, -0.03876957297325134], [0.10239623486995697, -0.08740944415330887, -0.03657703101634979], [-0.07344912737607956, 0.07319299131631851, -0.09634234756231308],
    [-0.03260168433189392, 0.09647923707962036, -0.007728433236479759], [0.12394841760396957, 0.09407072514295578, 0.01734253764152527], [0.03975376486778259, -0.1058570072054863, 0.07413025945425034],
    [0.03313523158431053, -0.027104463428258896, -0.10086625069379807], [0.11585942655801773, 0.1475507616996765, 0.06568335741758347], [0.11448417603969574, -0.04640942066907883, 0.09967520087957382],
    [0.09563448280096054, 0.0999656394124031, -0.10142243653535843], [0.030634624883532524, -0.012558706104755402, 0.11686600744724274], [0.06650004535913467, -0.04781288653612137, 0.07179749011993408],
    [-0.12494521588087082, -0.07418572157621384, -0.01714344508945942], [-0.08180153369903564, 0.10853946954011917, -0.13511551916599274], [0.018076743930578232, -0.05702640861272812, -0.12173324078321457],
    [0.065848208963871, -0.010031056590378284, 0.10465573519468307], [0.14773601293563843, 0.08328123390674591, 0.003979641944169998], [-0.14929580688476562, 0.03005163185298443, -0.09360533952713013],
    [-0.06345782428979874, -0.00895081926137209, -0.05807257443666458], [-0.047336146235466, -0.012097646482288837, -0.062335241585969925], [0.08079486340284348, 0.12681618332862854, 0.015612244606018066],
    [0.07095695286989212, -0.07396120578050613, 0.029023749753832817], [-0.08169563859701157, 0.048792093992233276, 0.11418679356575012], [-0.08292179554700851, 0.07713284343481064, 0.08454296737909317],
    [-0.03772199898958206, 0.11392693966627121, -0.0826885849237442], [-0.005728284362703562, -0.048495564609766006, 0.015750328078866005], [-0.005470489151775837, 0.14288495481014252, -0.03327428176999092],
    [-0.07109307497739792, -0.05493291839957237, 0.11791321635246277], [-0.06083126738667488, 0.00668594753369689, 0.057156771421432495], [-0.1049068421125412, 0.04866614192724228, 0.09972923994064331],
    [0.13587017357349396, 0.01105744019150734, 0.09040504693984985], [-0.05472714081406593, -0.026689521968364716, 0.052823230624198914], [0.004160154610872269, -0.12593606114387512, 0.014926151372492313],
    [0.017386356368660927, -0.10427688807249069, -0.07837662100791931], [-0.11592774838209152, -0.02008439414203167, 0.08182327449321747], [0.10257385671138763, -0.1049225702881813, 0.09645777195692062],
    [-0.040675073862075806, -0.0991910845041275, 0.07965386658906937], [-0.033893998712301254, 0.02422904781997204, -0.016064612194895744], [0.005451525561511517, 0.005527164321392775, 0.03577409312129021],
    [0.045900676399469376, -0.0874493196606636, -0.1526113897562027], [-0.013857802376151085, 0.11139950901269913, 0.024661270901560783], [0.143729567527771, -0.07975409179925919, -0.021836591884493828],
    [-0.10316754132509232, -0.04221278801560402, 0.005749506410211325], [0.021062547340989113, -0.07827096432447433, 0.11825021356344223], [-0.020455727353692055, -0.107333242893219, -0.03600327670574188],
    [-0.02155202068388462, 0.09769570827484131, 0.10227987170219421], [0.03268417716026306, -0.05346295237541199, 0.04534038156270981], [0.10489372909069061, -0.05434485897421837, -0.03463857248425484],
    [-0.05722391605377197, -0.04290369153022766, 0.05622526630759239], [0.09607681632041931, -0.1271090805530548, 0.029441390186548233], [-0.13378173112869263, 0.06243113800883293, -0.07579811662435532],
    [-0.10652004182338715, -0.13463684916496277, 0.0014232766116037965], [0.10846428573131561, 0.08849003911018372, -0.010508766397833824], [0.030181225389242172, 0.08493375778198242, 0.020515263080596924],
    [0.08446057140827179, 0.09738734364509583, 0.1363322138786316], [0.023472405970096588, -0.054474975913763046, -0.07831499725580215], [-0.08725296705961227, -0.11329863965511322, -0.02929883822798729],
    [-0.04698588699102402, -0.0182292889803648, -0.07863084226846695], [-0.12007773667573929, 0.02158854715526104, -0.016082769259810448], [0.09691443294286728, 0.061620742082595825, 0.11652201414108276],
    [-0.04391198232769966, 0.0017060082172974944, -0.13225434720516205], [0.052530836313962936, 0.132332906126976, 0.050823647528886795], [0.03257240355014801, 0.12857383489608765, 0.13648134469985962],
    [-0.03848433122038841, -0.0249894168227911, 0.10947685688734055], [-0.020124075934290886, 0.1143769845366478, -0.05825171619653702], [0.028995158150792122, -0.02017439343035221, 0.08377053588628769],
    [-0.09084386378526688, 0.04109615832567215, -0.1417485922574997], [-0.08162055164575577, 0.09371981024742126, 0.08677501231431961], [-0.10774347931146622, -0.016481781378388405, 0.08560733497142792],
    [-0.10347349941730499, 0.016637001186609268, 0.06958498060703278], [0.09588814526796341, 0.03455634042620659, -0.038753435015678406], [-0.014467483386397362, 0.07982166856527328, -0.09827915579080582],
    [0.03767291083931923, -0.03183426707983017, 0.06790859252214432], [-0.049547675997018814, 0.0032564527355134487, -0.04758317396044731], [-0.06716650724411011, 0.01239519938826561, -0.026674596592783928],
    [0.08628437668085098, 0.01906922459602356, -0.0600433275103569], [0.03962446749210358, -0.1106792688369751, 0.06698177009820938], [0.03935094177722931, 0.016223140060901642, 0.03353063389658928],
    [0.09201280027627945, 0.07415991276502609, -0.021720193326473236], [0.06507578492164612, -0.033440012484788895, -0.03532341495156288], [0.06778878718614578, 0.07385864108800888, 0.0672089084982872],
    [0.06314420700073242, -0.12738724052906036, 0.006282978691160679], [0.11910414695739746, 0.014218558557331562, 0.02559731714427471], [0.019740885123610497, -0.014659235253930092, 0.01171197835355997],
    [-0.11302364617586136, -0.1470324695110321, 0.05719888210296631], [0.038806602358818054, 0.06407944858074188, 0.053472667932510376], [-0.024043414741754532, -0.03233138471841812, -0.04864383488893509],
    [0.03408056125044823, 0.10137608647346497, -0.07120075076818466], [-0.06583628803491592, -0.11919479817152023, 0.007041633129119873], [0.050733812153339386, 0.09118860214948654, -0.006301122717559338],
    [-0.01767023280262947, 0.05310806632041931, 0.10596708953380585], [-0.10236269980669022, 0.0504150427877903, 0.03369157016277313], [-0.06165791675448418, -0.03527596592903137, -0.0901128500699997],
    [-0.0012817899696528912, -0.053833018988370895, -0.01538548432290554], [-0.013753190636634827, -0.009471970610320568, 0.07242186367511749], [-0.1218375489115715, 0.09111173450946808, 0.09585221111774445],
    [0.07480660080909729, 0.057969190180301666, 0.12923386693000793], [0.04345138743519783, -0.09174653142690659, -0.04132179915904999], [-0.0988302007317543, 0.03867597505450249, -0.12814532220363617]
};

// Layer: layer2.0.bias (1D array)
static const float layer2_0_B[] = { 0.04894208908081055, -0.1175171509385109, 0.09273848682641983, -0.07465140521526337, 0.10350178927183151, 0.1338215172290802, -0.01360041182488203, 0.03665068373084068, -0.044653285294771194, -0.04942966252565384, 0.056187115609645844, -0.10123474150896072, 0.06250207871198654, -0.05027144402265549, -0.10523594915866852, -0.014690822921693325 };

// Layer: layer2.1.weight (4D array)
static const float layer2_1_W[][][][] = {
    [0.08429529517889023, 0.09243899583816528, 0.005492963828146458], [0.03837946429848671, 0.07691508531570435, 0.001098825130611658], [0.03665471449494362, 0.005146925337612629, -0.0652446523308754],
    [-0.02529030479490757, -0.02346457913517952, 0.056657757610082626], [0.07052027434110641, 0.06803702563047409, -0.046546537429094315], [0.06432197242975235, 0.05731792002916336, -0.014250453561544418],
    [-0.09095548838376999, 0.02208048664033413, -0.009515288285911083], [-0.013894980773329735, 0.08067150413990021, 0.035872671753168106], [0.06334885954856873, 0.09088402986526489, 0.018044669181108475],
    [-0.05255663022398949, 0.05801698938012123, -0.016277821734547615], [-0.09727856516838074, -0.025947030633687973, -0.06825952976942062], [-0.0349503755569458, -0.008107045665383339, 0.005096659995615482],
    [-0.027392180636525154, 0.060242604464292526, 0.02672470360994339], [0.004640615079551935, 0.06350808590650558, -0.05564231052994728], [0.028623370453715324, 0.0093348054215312, 0.02996685728430748],
    [-0.07296836376190186, 0.038951218128204346, -0.0013745863689109683], [-0.0312348660081625, -0.019122591242194176, 0.033795230090618134], [-0.008027666248381138, 0.07240445911884308, 0.04959540814161301],
    [-0.039405882358551025, -0.016408240422606468, 0.04911297187209129], [0.037538595497608185, 0.06976492702960968, 0.043899789452552795], [-0.019977575168013573, 0.03302282840013504, 0.06800010055303574],
    [0.05560949072241783, 0.018628835678100586, 0.02032710425555706], [-0.05114512890577316, 0.04871462285518646, 0.05333802476525307], [-0.03986493870615959, -0.06949061900377274, 0.08281642943620682],
    [-0.03434334322810173, -0.04499220848083496, -0.019469529390335083], [-0.06385877728462219, -0.08549843728542328, 0.04965539276599884], [-0.07164400815963745, -0.014064519666135311, -0.07036183774471283],
    [0.08558714389801025, -0.06165158748626709, -0.05262535437941551], [-0.06360596418380737, 0.012048386037349701, 0.002965362975373864], [-0.06459958106279373, 0.0748080387711525, -0.03477555885910988],
    [-0.05426497384905815, -0.0756758525967598, -0.032378263771533966], [-0.04941577836871147, -0.06117379665374756, 0.052021849900484085], [0.041596099734306335, -0.04841874912381172, -0.05719379708170891],
    [-0.035468582063913345, -0.015166904777288437, 0.07046350836753845], [0.07958656549453735, 0.02708195336163044, -0.0749361664056778], [-0.02218032069504261, -0.054855018854141235, -0.014039549976587296],
    [0.03799275681376457, -0.053172484040260315, 0.07279220223426819], [-0.043136730790138245, 0.0211037490516901, -0.04961608350276947], [0.023290511220693588, 0.04189692437648773, 0.04593045264482498],
    [0.010937033221125603, 0.06964099407196045, 0.035829730331897736], [0.0516318753361702, -0.05095858871936798, 0.006659742444753647], [-0.041203804314136505, -0.0640677809715271, -0.012091953307390213],
    [-0.022113468497991562, 0.015331137925386429, -0.028209753334522247], [0.03742283955216408, 0.02354150451719761, 0.046210963279008865], [0.03662557154893875, 0.022298194468021393, 0.004734955728054047],
    [-0.0005270680994726717, -0.04148785024881363, 0.01056366041302681], [-0.06869467347860336, 0.012588368728756905, 0.016238845884799957], [0.07391467690467834, 0.026495860889554024, 0.05417872220277786],
    [-0.007514724042266607, -0.014428605325520039, -0.049021393060684204], [0.012169360183179379, 0.04664967209100723, -0.012789448723196983], [-0.024741321802139282, 0.040158189833164215, 0.09677101671695709],
    [0.033541567623615265, -0.05067578703165054, -0.019095858559012413], [-0.023697488009929657, 0.06840772181749344, -0.02204853482544422], [-0.04709865525364876, 0.032955609261989594, -0.048441898077726364],
    [-0.01831391640007496, 0.0089822793379426, -0.03228453919291496], [0.0712241381406784, 0.0038144970312714577, 0.08610526472330093], [0.04607875272631645, 0.02933635748922825, 0.006140670273452997],
    [-0.03343744948506355, -0.03465212509036064, 0.08686848729848862], [0.06608537584543228, 0.04834071174263954, 0.01217336393892765], [-0.021689623594284058, -0.004815106280148029, 0.04518517851829529],
    [-0.00011475945211714134, -0.03406459093093872, -0.05606977641582489], [0.003256211755797267, -0.010121877305209637, 0.03283017873764038], [-0.03224560618400574, 0.04155620187520981, -0.005240237340331078],
    [0.04855683445930481, 0.019962212070822716, -0.030671067535877228], [0.038367077708244324, 0.0013255842495709658, -0.06220284476876259], [0.01783052645623684, 0.04684343561530113, 0.05006270855665207],
    [0.03852938860654831, 0.04246409237384796, -0.039303429424762726], [0.04959910362958908, 0.018111955374479294, -0.04783349484205246], [-0.014390477910637856, -0.04370750114321709, -0.048163533210754395],
    [0.06526492536067963, -0.0574599988758564, 0.01947498880326748], [-0.0626470148563385, -0.047311145812273026, -0.06964028626680374], [0.0562119297683239, -0.023066241294145584, 0.04080967977643013],
    [-0.023375118151307106, -0.014774813316762447, 0.005695676431059837], [-0.08026422560214996, 0.023672759532928467, 0.013496017083525658], [0.008005713112652302, -0.05477043241262436, 0.04091764986515045],
    [0.09179554879665375, -0.019384916871786118, 0.035433247685432434], [0.05820011720061302, -0.03562358766794205, 0.04988923668861389], [0.024178821593523026, 0.07520651072263718, 0.025152867659926414],
    [0.041932884603738785, 0.012803051620721817, 0.002466219011694193], [0.0266774520277977, 0.007028102409094572, -0.06614528596401215], [0.015613340772688389, -0.08378544449806213, 0.0770944282412529],
    [0.010598487220704556, 0.024765271693468094, -0.037174515426158905], [-0.008270598016679287, -0.04702095687389374, -0.0014574024826288223], [-0.05022286996245384, -0.016704117879271507, 0.04304378852248192],
    [-0.005063861608505249, -0.0845484584569931, -0.06168034300208092], [-0.048023056238889694, -0.035867393016815186, -0.006047055125236511], [0.02920912206172943, -0.0022091546561568975, -0.026751885190606117],
    [0.007785903289914131, 0.019989516586065292, -0.02765529416501522], [0.06646326184272766, -0.00412307633087039, -0.009366998448967934], [-0.07705950736999512, 0.02148890309035778, -0.038824718445539474],
    [0.05714212730526924, 0.01646912842988968, -0.05830756574869156], [0.018492646515369415, 0.05247962847352028, 0.02154405228793621], [0.058073174208402634, 0.030654167756438255, -0.032945938408374786],
    [-0.05593273416161537, 0.021304676309227943, -0.09351705014705658], [0.04685385152697563, 0.010280136950314045, 0.06848444044589996], [0.04080374538898468, -0.010987942107021809, 0.074386365711689],
    [-0.05810015648603439, 0.043278928846120834, -0.0288477074354887], [-0.00624017883092165, 0.04227704554796219, 0.016822490841150284], [0.09400895237922668, 0.04348794370889664, -0.023500284180045128],
    [-0.06830719113349915, -0.004849269986152649, -0.014404277317225933], [0.09607107937335968, 0.07208570092916489, 0.09034297615289688], [-0.022054079920053482, 0.049102045595645905, 0.028492435812950134],
    [0.026637131348252296, 0.0636516809463501, 0.05734461173415184], [0.07286754250526428, 0.055397264659404755, 0.004458445589989424], [-0.011920648626983166, 0.04136597365140915, -0.013572312891483307],
    [-0.07251271605491638, 0.03705910965800285, 0.04331018775701523], [0.07638031244277954, -0.06986227631568909, 0.01034525502473116], [-0.055800266563892365, 0.04142024740576744, 0.035956673324108124],
    [-0.025152135640382767, 0.05437133461236954, 0.009774444624781609], [-0.008856376633048058, 0.053536444902420044, 0.0020839564967900515], [-0.01041420828551054, -0.02741974964737892, 0.056991368532180786],
    [0.029704393818974495, -0.0065022604539990425, 0.05199554190039635], [0.06335814297199249, -0.04810900241136551, 0.02589394710958004], [-0.04965750128030777, 0.057068582624197006, -0.022631358355283737],
    [0.017018431797623634, 0.031393636018037796, 0.04432486370205879], [0.02448585256934166, 0.009847776032984257, 0.011340538039803505], [0.032228581607341766, -0.05633614957332611, -0.06984516978263855],
    [-0.05091722309589386, 0.02540167048573494, 0.04775213450193405], [-0.0108261089771986, 0.04525299742817879, 0.023484596982598305], [-0.037110477685928345, 0.06846413016319275, 0.012775445356965065],
    [-0.028367888182401657, -0.018412187695503235, 0.0364614799618721], [-0.05794429033994675, -0.004106431733816862, -0.07664056867361069], [-0.06627535820007324, -0.07265767455101013, 0.061903391033411026],
    [-0.03688424080610275, 0.0019140164367854595, -0.084560826420784], [-0.01539780292659998, 0.035482726991176605, -0.004211753606796265], [0.04910573363304138, -0.010469377972185612, -0.06996963173151016],
    [0.07515006512403488, -0.007917312905192375, -0.03480552136898041], [0.02991657704114914, 0.03403836488723755, 0.07519987970590591], [-0.007310614921152592, -0.015530234202742577, 0.027180710807442665],
    [0.018734551966190338, -0.05577535182237625, -0.060954105108976364], [0.09034865349531174, 0.09899497032165527, -0.03132320195436478], [0.013375423848628998, 0.09399905800819397, -0.046966105699539185],
    [-0.055810246616601944, 0.047294676303863525, 0.011399079114198685], [0.06555808335542679, -0.09712164103984833, -0.06048617511987686], [0.026215331628918648, -0.007682744413614273, -0.05364365130662918],
    [0.05267627537250519, 0.044548727571964264, -0.033486999571323395], [0.032870929688215256, -0.0689847320318222, -0.0335460901260376], [-0.05956335365772247, -0.01483607105910778, 0.0752311497926712],
    [0.02833329699933529, 0.009853146970272064, 0.0579071044921875], [0.06784103065729141, 0.045632731169462204, 0.05697305127978325], [0.06646817177534103, 0.0770583525300026, 0.074912890791893],
    [0.03839502111077309, 0.03852887451648712, -0.007241524290293455], [-0.06416691839694977, 0.02042587287724018, 0.054679885506629944], [-0.05032173916697502, -0.056934721767902374, -0.020145904272794724],
    [-0.07138165086507797, -0.0276988185942173, -0.016753435134887695], [-0.06640972942113876, -0.025886883959174156, -0.08487796038389206], [-0.05923919752240181, -0.056279994547367096, 0.006935430224984884],
    [0.023977603763341904, -0.023219089955091476, 0.0622343048453331], [0.0993824377655983, -0.030265232548117638, 0.08703973889350891], [0.03796602040529251, 0.06419319659471512, -0.09196878969669342],
    [-0.019786709919571877, -0.02870289981365204, 0.06765660643577576], [0.09494488686323166, 0.013509513810276985, -0.02716541849076748], [-0.03528626635670662, 0.008431297726929188, -0.053328052163124084],
    [-0.09536084532737732, 0.04060845822095871, -0.07253479212522507], [0.020320627838373184, -0.01962556317448616, 0.0024485751055181026], [-0.0608721561729908, 0.03178586810827255, 0.06003757193684578],
    [-0.028940698131918907, 0.06205258145928383, 0.0030340317171067], [0.0334802009165287, -0.0510193295776844, -0.05815345048904419], [0.04788123816251755, -0.037338484078645706, 0.07259466499090195],
    [0.04504271596670151, -0.050687097012996674, -0.02391996793448925], [0.08112072944641113, 0.041317474097013474, 0.0086995679885149], [0.02996012195944786, 0.024408645927906036, 0.061285004019737244],
    [0.06883256882429123, -0.06925994157791138, 0.048954810947179794], [-0.024288257583975792, 0.017927462235093117, -0.04315873980522156], [-0.04208308458328247, -0.028016218915581703, -0.030934983864426613],
    [-0.033069908618927, -0.016385270282626152, -0.024285299703478813], [-0.038834817707538605, -0.07622917741537094, -0.016832491382956505], [0.019224263727664948, 0.07113036513328552, 0.02937055379152298],
    [-0.009677757509052753, -0.057290032505989075, 0.06866594403982162], [0.04941858723759651, 0.05044480413198471, -0.03550591319799423], [-0.06342244148254395, 0.05481082946062088, -0.052857037633657455],
    [-0.03583839163184166, -0.06890027970075607, 0.024311190471053123], [0.012432055547833443, -0.04722459986805916, -0.02678014524281025], [0.009124577976763248, -0.03731546923518181, 0.026573458686470985],
    [0.06435278803110123, -0.06960072368383408, 0.02153935469686985], [-0.012535101734101772, -0.05419111251831055, -0.06551557779312134], [-0.06983555853366852, -0.09339892864227295, 0.048879411071538925],
    [0.09657076746225357, -0.047248587012290955, 0.0879574716091156], [0.024779019877314568, -0.044784605503082275, -0.011628709733486176], [-0.06689377874135971, 0.01566263660788536, -0.023882169276475906],
    [0.06320298463106155, -0.055857498198747635, -0.030035050585865974], [-0.0027404450811445713, -0.05370047315955162, -0.038277022540569305], [-0.018531247973442078, 0.08591297268867493, -0.047138094902038574],
    [-0.0747242122888565, -0.07261259108781815, 0.029950037598609924], [0.052098412066698074, 0.024016467854380608, 0.019483916461467743], [0.000815979961771518, 0.05129849165678024, 0.022552814334630966],
    [0.05383419618010521, -0.01175598707050085, -0.0072156330570578575], [-0.023083459585905075, 0.02262047491967678, 0.04332340881228447], [0.06182519346475601, -0.06220245733857155, 0.05874580889940262],
    [-0.07366164028644562, 0.055515095591545105, 0.06966958940029144], [-0.02284090407192707, 0.061970241367816925, 0.06927347928285599], [-0.04032254219055176, 0.0654190182685852, -0.012828829698264599],
    [0.003348398255184293, 0.0495021790266037, -0.08004282414913177], [-0.027215223759412766, 0.043405238538980484, 0.055670905858278275], [-0.06002206355333328, -0.044195692986249924, 0.07732131332159042],
    [-0.0018663824303075671, 0.039305586367845535, 0.03858315944671631], [-0.018077896907925606, 0.04554244130849838, 0.013858657330274582], [0.07061386108398438, -0.051259659230709076, 0.030075285583734512],
    [-0.04593782499432564, 0.019066106528043747, -0.01450946182012558], [0.08108619600534439, 0.024194955825805664, 0.043483149260282516], [0.057046934962272644, -0.0195406973361969, 0.05246470496058464],
    [-0.04456168785691261, -0.023057492449879646, -0.02751007117331028], [-0.05141730606555939, 0.02228277176618576, 0.052001841366291046], [0.013751108199357986, -0.007091909646987915, -0.01552580762654543],
    [0.06125972792506218, -0.032359182834625244, -0.07167456299066544], [-0.06203348562121391, -0.0036616739816963673, 0.037293966859579086], [-0.06197876110672951, 0.004190719220787287, 0.047858014702796936],
    [0.032778479158878326, 0.051774635910987854, 0.01814013160765171], [-0.01691511832177639, -0.0337473601102829, 0.060563813894987106], [0.060245685279369354, -0.010065741837024689, 0.05513041466474533],
    [0.0762316957116127, -0.004703948274254799, 0.0003729678865056485], [-0.06285186856985092, -0.06303946673870087, -0.05748273432254791], [0.08813939988613129, 0.08624362200498581, -0.0040389010682702065],
    [0.047515690326690674, 0.05701129883527756, 0.011517368257045746], [0.08171378821134567, 0.016097018495202065, -0.08198435604572296], [0.023368483409285545, 0.051110319793224335, 0.014590064994990826],
    [-0.054718777537345886, 0.06062602624297142, 0.05832098424434662], [0.042909931391477585, 0.06917326152324677, -0.08738381415605545], [-0.033473461866378784, -0.02463127300143242, -0.07042276859283447],
    [0.040187980979681015, -0.07408297806978226, 0.03034115396440029], [-0.07237236201763153, 0.01365645881742239, -0.08670498430728912], [-0.06018523871898651, -0.03371240571141243, -0.054649610072374344],
    [-0.003898120950907469, -0.09267003834247589, 0.00014799748896621168], [0.04284586384892464, -0.055207107216119766, -0.09621096402406693], [0.002169328276067972, -0.045833565294742584, 0.05856369063258171],
    [0.03951878473162651, -0.04767762869596481, -0.057254608720541], [-0.040013279765844345, -0.046010687947273254, 0.045486174523830414], [-0.03148462995886803, -0.044523704797029495, 0.10232900083065033],
    [-0.04371056705713272, -0.042834993451833725, -0.04565349221229553], [0.08745043724775314, -0.023647572845220566, -0.02975536324083805], [0.053641460835933685, 0.040274567902088165, -0.03149641677737236],
    [-0.04221358522772789, 0.0012221162905916572, 0.03464839980006218], [-0.0601823590695858, -0.01886259764432907, 0.007760444190353155], [-0.05880355089902878, 0.07314909994602203, 0.028612080961465836],
    [0.04412941634654999, -0.018154550343751907, -0.028971726074814796], [-0.01096088532358408, -0.07407069206237793, -0.052970509976148605], [0.04931974783539772, -0.053558558225631714, -0.014807987958192825],
    [0.055328186601400375, -0.09150955826044083, 0.017573639750480652], [-0.02235565520823002, -0.0369938500225544, 0.06011512130498886], [-0.04624403640627861, 0.04851296916604042, 0.050877608358860016],
    [-0.05152267962694168, -0.07490387558937073, -0.01629708707332611], [-0.024803094565868378, -0.04216789826750755, -0.06476350128650665], [0.04501565545797348, -0.02880263514816761, -0.04604463279247284],
    [0.030543535947799683, 0.02528843656182289, -0.06637470424175262], [-0.060035400092601776, 0.010207805782556534, 0.06461524218320847], [-0.04319849610328674, -0.03100936859846115, -0.011271159164607525],
    [-0.0049623711965978146, 0.0015463265590369701, 0.012630834244191647], [-0.030692653730511665, 0.04839438945055008, -0.017747391015291214], [-0.018724631518125534, -0.07497487962245941, -0.08868716657161713],
    [-0.050670672208070755, -0.012296365574002266, -0.06241508945822716], [-0.0011396671179682016, -0.06814014911651611, 0.0015639401972293854], [0.02514561638236046, -0.07574715465307236, -0.026333734393119812],
    [0.016892924904823303, -0.006994931492954493, 0.00869227945804596], [0.0602174811065197, 0.051150109618902206, 0.0181976780295372], [0.07552513480186462, 0.05044474080204964, -0.06484062224626541],
    [-0.061040036380290985, 0.0669531524181366, 0.07808459550142288], [0.01961532235145569, 0.06360480189323425, -0.005628630984574556], [0.07517702132463455, -0.029196960851550102, -0.0849924311041832],
    [0.0011832104064524174, -0.05240551009774208, -0.09427744895219803], [0.017280858010053635, 0.056516148149967194, 0.0008985519525595009], [0.03335545212030411, 0.013144955970346928, 0.020862292498350143],
    [-0.044830624014139175, -0.05905279144644737, -0.0979950800538063], [0.03192758560180664, -0.10076218098402023, 0.020073177292943], [-0.04974626377224922, -0.043304119259119034, 0.01842881552875042],
    [-0.053042639046907425, -0.08083991706371307, 0.02151554636657238], [-0.01112839113920927, 0.0408453494310379, -0.06523604691028595], [0.023495005443692207, -0.07641375809907913, -0.08509913086891174],
    [-0.027368873357772827, 0.04297807812690735, -0.015844546258449554], [-0.054253872483968735, -0.07230085134506226, 0.06209760531783104], [0.0151662053540349, -0.011676152236759663, 0.046132441610097885],
    [-0.05425187200307846, 0.05275696516036987, -0.030688783153891563], [0.06597309559583664, 0.035681355744600296, 9.262968524126336e-05], [-0.07929570227861404, 0.028981709852814674, -0.03506100922822952],
    [-0.04805098474025726, -0.044682782143354416, -0.08145126700401306], [-0.030595047399401665, 0.05237872898578644, 0.009921075776219368], [0.02559490315616131, -0.05289335921406746, -0.07587824016809464],
    [0.021273870021104813, -0.07023549824953079, 0.006397535093128681], [0.046621423214673996, 0.058867402374744415, -0.027580324560403824], [0.021745046600699425, 0.06907018274068832, 0.07748255133628845],
    [0.05100969970226288, -0.020947081968188286, 0.05841735377907753], [0.02496332675218582, -0.005149391479790211, -0.012063258327543736], [-0.05424807220697403, -0.009244000539183617, 0.04643514007329941],
    [-0.05678832530975342, -0.07907494157552719, -0.07212980091571808], [0.04812558740377426, 0.07453125715255737, -0.0007154589984565973], [-0.020598361268639565, 0.043300580233335495, 0.01718403585255146],
    [-0.026217591017484665, -0.050523169338703156, 0.016071731224656105], [0.02992265671491623, 0.04622631520032883, 0.030845388770103455], [-0.08598878979682922, -0.017659403383731842, -0.07098323106765747],
    [-0.043762970715761185, -0.020360618829727173, 0.060211241245269775], [0.08062461763620377, 0.041667964309453964, -0.01140353549271822], [0.0966510996222496, -0.06646250933408737, -0.06334926933050156],
    [-0.042950309813022614, -0.0005267311353236437, 0.04220329970121384], [0.040359530597925186, -0.07735339552164078, -0.03796645626425743], [0.03261927142739296, -0.07183941453695297, -0.05018683522939682],
    [-0.10067207366228104, 0.0574672669172287, 0.08103431016206741], [0.022284505888819695, 0.0803840234875679, 0.04280939698219299], [-0.09970223158597946, -0.02938348427414894, -0.0226521547883749],
    [0.003134185681119561, -0.05749107152223587, 0.03528432175517082], [0.053793683648109436, 0.06519287079572678, 0.06251265108585358], [0.046368274837732315, -0.08205714076757431, -0.04595250263810158],
    [0.044578827917575836, 0.002699806820601225, 0.055050503462553024], [-0.07590567320585251, 0.08870909363031387, 0.05131375417113304], [-0.04568915814161301, 0.06884749233722687, -0.03946604207158089],
    [0.025782223790884018, -0.049139682203531265, -0.07210037112236023], [0.09522559493780136, -0.020856887102127075, -0.06745966523885727], [-0.06410658359527588, 0.06328662484884262, 0.02987641654908657],
    [0.007702934555709362, 0.00023705820785835385, 0.05994446575641632], [0.07933042198419571, -0.03330719843506813, -0.008286449126899242], [-0.07807237654924393, -0.006760315038263798, -0.04585673660039902],
    [0.03410392999649048, -0.026945780962705612, -0.042209457606077194], [0.06996078044176102, 0.04221643507480621, 0.05140477418899536], [0.023957934230566025, -0.051494091749191284, -0.01968800276517868],
    [-0.06770454347133636, -0.017388176172971725, 0.031949158757925034], [0.04721437394618988, -0.0411573089659214, 0.07014283537864685], [0.018887167796492577, -0.08275224268436432, -0.040826138108968735],
    [-0.025073977187275887, 0.0861223042011261, 0.03762338310480118], [-0.003169624600559473, 0.07799024134874344, -0.05592069774866104], [-0.02953028678894043, -0.0009237804915755987, 0.05344380438327789],
    [0.05191771313548088, -0.027160892263054848, -0.027455320581793785], [-0.07872775197029114, 0.057176243513822556, -0.029442038387060165], [-0.053157538175582886, 0.04544626921415329, 0.001468081260100007],
    [-0.06219228729605675, -0.0005643960321322083, 0.02345355972647667], [-0.010363439098000526, 0.026646001264452934, -0.06651861220598221], [0.021987490355968475, -0.039406079798936844, 0.04702664911746979],
    [-0.03504692763090134, 0.09220375865697861, -0.044176436960697174], [-0.01737625151872635, -0.08464855700731277, 0.014817357063293457], [0.043721217662096024, -0.07059909403324127, -0.019274355843663216],
    [-0.07220010459423065, 0.019710777327418327, 0.020247353240847588], [0.04934114217758179, 0.01200918946415186, -0.03293805941939354], [0.07425155490636826, 0.03418705612421036, 0.03813999146223068],
    [-0.10367421805858612, -0.007759196683764458, -0.05978153273463249], [-0.09293877333402634, -0.004094961564987898, -0.05076033994555473], [-0.044830385595560074, -0.0012970056850463152, -0.023444468155503273],
    [0.0662064403295517, 0.06555918604135513, 0.005845001433044672], [-0.059682443737983704, 0.004176301881670952, -0.009020665660500526], [-0.027051057666540146, -0.05309101566672325, -0.04468655586242676],
    [-0.019281771034002304, 0.07225094735622406, 0.030586257576942444], [0.015607993118464947, 0.03005526028573513, -0.006741489749401808], [-0.0241774283349514, 0.030408188700675964, 0.0175392497330904],
    [0.02244015783071518, -0.020067444071173668, -0.025118578225374222], [0.05416823551058769, -0.09306389093399048, -0.04943375289440155], [-0.0279228538274765, 0.043921638280153275, -0.02233005501329899],
    [-0.023276085034012794, 0.055938661098480225, 0.08810809999704361], [-0.07833639532327652, -0.04461308941245079, -0.048036132007837296], [-0.05416741222143173, 0.01196715421974659, -0.008693482726812363],
    [0.010999920777976513, 0.037494905292987823, 0.02362067624926567], [-0.019596664234995842, 0.0249324981123209, -0.015325197950005531], [0.05868399143218994, 0.017294438555836678, -0.06412465870380402],
    [0.006558034103363752, -0.031081805005669594, -0.019581742584705353], [-0.08202638477087021, 0.013683744706213474, 0.04708759859204292], [0.01936265081167221, 0.040565650910139084, 0.07005070149898529],
    [0.010060785338282585, -0.06990979611873627, 0.034504447132349014], [0.07043873518705368, 0.007963943295180798, -0.05489851161837578], [-0.043622251600027084, -0.008620176464319229, 0.023460466414690018],
    [-0.01182381808757782, -0.04469228535890579, 0.07480895519256592], [-0.08196920901536942, 0.0033479759003967047, 0.02349482662975788], [-0.07559071481227875, 0.08645276725292206, 0.032294031232595444],
    [-0.00031603258685208857, 0.049685247242450714, -0.011144584976136684], [-0.05670754611492157, -0.04039820656180382, -0.0630379319190979], [0.016144460067152977, 0.05434278026223183, -0.05245720222592354],
    [0.07292720675468445, -0.05134587362408638, -0.0385887548327446], [0.0058042132295668125, 0.003992218058556318, -0.06526131182909012], [0.067160964012146, 0.026410793885588646, 0.011702689342200756],
    [-0.036073584109544754, -0.026267051696777344, -0.06034629046916962], [0.029484840109944344, 0.10214109718799591, -0.007448439486324787], [0.08608763664960861, 0.03194673731923103, 0.03986267372965813],
    [-0.07805106788873672, -0.05841543525457382, -0.00010711693903431296], [-0.04050594940781593, -9.281009988626465e-05, 0.004239554051309824], [-0.02159309573471546, -0.061870332807302475, 0.07725295424461365],
    [0.06295865774154663, -0.0704895630478859, -0.03722163662314415], [-8.931739284889773e-05, 0.07985840737819672, -0.04902533069252968], [0.014557227492332458, 0.08309046924114227, -0.028508223593235016],
    [-0.02828896790742874, -0.07265172898769379, 0.03203196823596954], [-0.030701451003551483, -0.04306434094905853, -0.04345659166574478], [0.01243628654628992, 0.02425329014658928, -0.013653752394020557],
    [0.025120023638010025, 0.05002167820930481, 0.009034332819283009], [0.06388049572706223, -0.06631428748369217, -0.01693783700466156], [0.04811382666230202, 0.05576511099934578, 0.08015207946300507],
    [0.04892360046505928, -0.05587651953101158, 0.016649411991238594], [0.04481004178524017, -0.009649370796978474, -0.05214099958539009], [0.03742140159010887, -0.06248447671532631, 0.030951017513871193],
    [-0.09919999539852142, -0.11437354236841202, 0.025761540979146957], [-0.07829680293798447, -0.03429103270173073, 0.07093409448862076], [0.07109535485506058, 0.0920930951833725, -0.09733609855175018],
    [-0.07631810009479523, -0.10256637632846832, 0.06939969211816788], [0.06347912549972534, 0.026546649634838104, -0.025627195835113525], [0.0057561444118618965, -0.04837966710329056, -0.00583858136087656],
    [-0.005244879052042961, 0.024198215454816818, 0.10020642727613449], [-0.045890625566244125, -0.06996330618858337, 0.0805470198392868], [-0.04092059284448624, 0.025549860671162605, 0.01153729297220707],
    [0.08471953868865967, -0.016932090744376183, 0.07029946148395538], [0.028333380818367004, -0.011050879955291748, 0.056737542152404785], [-0.07419285923242569, -0.03460654616355896, 0.010682768188416958],
    [0.03462737426161766, -0.06381940841674805, 0.021195244044065475], [0.04428720846772194, -0.012368839234113693, 0.042387619614601135], [-0.06993862241506577, 0.042566705495119095, -0.014312085695564747],
    [-0.04360217973589897, -0.06108067184686661, 0.06169215589761734], [-0.021196356043219566, 0.0041725211776793, 0.04544449597597122], [-0.0358816422522068, 0.02014944702386856, -0.0016338317655026913],
    [0.03496649116277695, 0.01470874436199665, 0.10543830692768097], [-0.011168642900884151, -0.07567153871059418, -0.0005351139698177576], [-0.04279455542564392, -0.03537004813551903, -0.00022793161042500287],
    [-0.022293036803603172, -0.02864374779164791, -0.034019023180007935], [0.08962415158748627, 0.047118622809648514, 0.08373882621526718], [-0.07193931192159653, -0.05474468320608139, -0.08208580315113068],
    [0.04920276626944542, -0.025449853390455246, 0.06564540416002274], [-0.028591208159923553, -0.032036297023296356, 0.05772152170538902], [0.020306525751948357, 0.04327506199479103, 0.04832347482442856],
    [0.0725071132183075, 0.06793953478336334, 0.03450531139969826], [0.04583728685975075, -0.04451398551464081, -0.03403245285153389], [-0.01808810420334339, -0.0020747333765029907, -0.0026744119822978973],
    [0.07340745627880096, -0.037851862609386444, 0.02063470333814621], [-0.025617556646466255, -0.05543971806764603, 0.02466188371181488], [-0.03996753692626953, 0.009537934325635433, -0.02136862464249134],
    [0.013739557936787605, -0.06992102414369583, 0.09998434782028198], [0.019153621047735214, -0.046164631843566895, -0.06377746909856796], [0.025926925241947174, 0.02309427224099636, -0.0392272025346756],
    [-0.03155801072716713, 0.028708335012197495, -0.048539116978645325], [0.06836704909801483, 0.02500329725444317, -0.03879935294389725], [0.060156796127557755, -0.002762612421065569, 0.02138449251651764],
    [-0.04463712498545647, 0.033686328679323196, -0.045337412506341934], [-0.003573454450815916, 0.049939826130867004, -0.05301464721560478], [0.016675814986228943, 0.08170672506093979, -0.02145758830010891],
    [-0.00528487004339695, 0.06151081994175911, -0.00563286105170846], [0.06527279317378998, 0.008335437625646591, -0.09858784079551697], [0.07955650240182877, 0.05803125351667404, -0.019348371773958206],
    [0.009097986854612827, -0.0785752460360527, 0.05874818563461304], [-0.08516019582748413, 0.05137276276946068, 0.042690519243478775], [-0.018146175891160965, -0.08936887979507446, -0.012226652354001999],
    [-0.08372718840837479, -0.03577328845858574, -0.003944450989365578], [-0.07467084378004074, -0.06097524240612984, 0.03552288934588432], [-0.027399364858865738, 0.04344286769628525, 0.02869325503706932],
    [0.0003327745944261551, -0.07964270561933517, -0.0278011541813612], [0.00255072140134871, -0.06678072363138199, -0.09351620078086853], [0.005963259842246771, 0.053080569952726364, -0.026362232863903046],
    [-0.05100497975945473, 0.04569520056247711, 0.04144422709941864], [-0.00949808955192566, -0.07647895067930222, 0.01881195604801178], [-0.03428272902965546, 0.052108824253082275, 0.03847211226820946],
    [0.03842572122812271, -0.02836955524981022, -0.08371228724718094], [-0.09152328222990036, -0.08993453532457352, -0.03074650466442108], [0.04263417050242424, 0.002902422333136201, 0.02440231665968895],
    [-0.036859676241874695, 0.03825320303440094, -0.01541477907449007], [-0.0738692656159401, -0.0036257789470255375, 0.05578459054231644], [0.0645274892449379, -0.023709319531917572, -0.05685656517744064],
    [-0.06797987222671509, -0.03185174614191055, 0.07656195014715195], [-0.055840060114860535, -0.03832134231925011, 0.05088842660188675], [-0.06137801706790924, -0.03776027262210846, -0.05737452581524849],
    [-0.05583754554390907, -0.07193481922149658, 0.07256627827882767], [0.07157885283231735, -0.018053017556667328, -0.02016771025955677], [0.0042997621931135654, 0.07512737810611725, -0.0007482221117243171],
    [-0.012522421777248383, 0.05206449702382088, -0.06426817178726196], [0.07912039011716843, 0.026880411431193352, 0.04719756916165352], [0.04888676851987839, -0.015956861898303032, -0.03598897159099579],
    [0.043273866176605225, -0.0728900283575058, 0.05753665417432785], [-0.07525041699409485, -0.08267755806446075, 0.03825529292225838], [0.05803598836064339, 0.062263309955596924, 0.07573601603507996],
    [-0.09074876457452774, 0.012706583365797997, 0.010835537686944008], [0.06632818281650543, -0.051657889038324356, -0.037829481065273285], [0.064348503947258, -0.04252215847373009, -0.0005685113719664514],
    [-0.023240387439727783, -0.012011032551527023, 0.030703891068696976], [-0.01891036331653595, -0.05606503039598465, 0.06398744136095047], [0.04299204424023628, 0.053700435906648636, -0.01865178905427456],
    [-0.04926038905978203, -0.008300534449517727, -0.03515995293855667], [0.014297467656433582, -0.03355416655540466, -0.08939532190561295], [-0.03883975371718407, -0.06097547337412834, -0.07713442295789719],
    [-0.047476876527071, 0.05731508880853653, -0.06659837067127228], [-0.030151020735502243, 0.03284556791186333, 0.00531421322375536], [-0.0767969936132431, -0.019587846472859383, -0.021784057840704918],
    [0.03117668628692627, 0.0048018149100244045, 0.029449939727783203], [-0.04634011164307594, 0.04353475570678711, -0.005452773068100214], [-0.06408659368753433, -0.013699475675821304, 0.014428051188588142],
    [0.020299861207604408, 0.07165772467851639, 0.0011294669238850474], [0.020032120868563652, 0.10053238272666931, 0.0063394163735210896], [0.033124588429927826, 0.0305465180426836, 0.052848681807518005],
    [3.869051215588115e-05, 0.05857270210981369, -0.035306498408317566], [-0.0398809053003788, 0.08778582513332367, 0.08962002396583557], [0.0075880419462919235, -0.04722411185503006, -0.007558626122772694],
    [-0.05712394043803215, -0.0613897442817688, -0.002559900749474764], [0.059206828474998474, -0.0932752937078476, -0.020729081705212593], [-0.04720151051878929, -0.0096935098990798, -0.009308259934186935],
    [0.05097052827477455, -0.00010119457147084177, 0.04434366524219513], [-0.03585519641637802, -0.07908530533313751, 0.03306044638156891], [-0.007161439396440983, 0.10366084426641464, -0.02795279026031494],
    [-0.08437048643827438, 0.035407111048698425, 0.050416480749845505], [0.07140655070543289, 0.07130272686481476, -0.04516046866774559], [-0.06460785865783691, -0.014332888647913933, 0.037845347076654434],
    [-0.016380833461880684, -0.039029207080602646, -0.007150702178478241], [0.018337687477469444, -0.07559099048376083, -0.03769156336784363], [-0.02091321162879467, 0.08661451190710068, -0.04941631853580475],
    [-0.04632651060819626, -0.0033287517726421356, 0.0380626805126667], [-0.061510227620601654, 0.006170352920889854, 0.05897495523095131], [0.05721188336610794, -0.011090220883488655, -0.053946852684020996],
    [0.03435219079256058, 0.0031486444640904665, -0.06796985119581223], [-0.029272988438606262, 0.03500715643167496, 0.01701510138809681], [-0.004928239155560732, -0.060488030314445496, -0.015480948612093925],
    [-0.02756086178123951, -0.04221424460411072, -0.05378439277410507], [-0.039587341248989105, 0.06477607041597366, -0.05821409448981285], [-0.04663018509745598, 0.052947334945201874, -0.06497315317392349],
    [-0.022838542237877846, 0.008616664446890354, 0.00241679884493351], [-0.02037975564599037, -0.005812895018607378, 0.03696130961179733], [-0.024982403963804245, -0.04663356393575668, 0.020238786935806274],
    [-0.05960364267230034, -0.03589164465665817, -0.0159437358379364], [-0.05854235589504242, -0.036103930324316025, 0.06389224529266357], [-0.004035779275000095, 0.0011237261351197958, 0.09198544919490814],
    [-0.0771920308470726, -0.060690343379974365, -0.006565474905073643], [0.027752095833420753, -0.01623452827334404, 0.052368100732564926], [-0.03436913341283798, -0.061456695199012756, 0.04576965793967247],
    [0.04541720449924469, 0.07385335117578506, -0.06853671371936798], [-0.05681665241718292, 0.039503466337919235, 0.07505569607019424], [-0.07105880230665207, -0.026912562549114227, 0.034328851848840714],
    [0.014807887375354767, 0.04550649970769882, -0.03521467745304108], [0.05869857966899872, -0.05928170308470726, -0.05779208615422249], [0.03501392900943756, -0.009630515240132809, -0.07383963465690613],
    [0.043709538877010345, -0.052193474024534225, -0.007307068910449743], [0.02039804309606552, -0.014895705506205559, -0.020140299573540688], [0.09056545794010162, 0.02811601012945175, 0.002580705564469099],
    [0.05406845733523369, -0.036079660058021545, 0.011321173049509525], [0.027732206508517265, -0.06875462830066681, -0.016336452215909958], [0.02645217254757881, 0.0763774886727333, 0.00403902493417263],
    [-0.00012828086619265378, -0.020623477175831795, 0.004669363610446453], [-0.016565963625907898, -0.0379679873585701, 0.03950752690434456], [0.021161174401640892, -0.06752115488052368, -0.040568236261606216],
    [0.07328131049871445, 0.03865767642855644, 0.0053769913502037525], [0.04725617915391922, 0.018990542739629745, -0.029872478917241096], [-0.0306332316249609, -0.05559895560145378, 0.011560406535863876],
    [-0.0366092287003994, 0.0661151260137558, 0.07815959304571152], [-0.09221108257770538, 0.032882723957300186, 0.058301832526922226], [-0.009179314598441124, 0.05362354591488838, 0.06755448132753372],
    [0.1002613753080368, -0.06690457463264465, 0.04197441413998604], [0.026062224060297012, -0.06902190297842026, 0.054766587913036346], [0.038665201514959335, -0.011714601889252663, -0.004045703914016485],
    [-0.0707780197262764, -0.0816158652305603, 0.05186603218317032], [-0.08638251572847366, 0.043378788977861404, 0.06574208289384842], [-0.007055233232676983, -0.0720352828502655, 0.019297447055578232],
    [-0.055201828479766846, 0.05448249727487564, 0.01420506276190281], [-0.06331181526184082, -0.0859697014093399, -0.013656405732035637], [0.046707335859537125, -0.05207040160894394, -0.04469911754131317],
    [0.050155576318502426, -0.012778508476912975, -0.04707731306552887], [-0.08561009168624878, -0.06047149747610092, 0.02662402205169201], [-0.0230655986815691, -0.022207213565707207, -0.02582775056362152],
    [0.006380889564752579, 0.008225943893194199, -0.02322687953710556], [0.01002640649676323, 0.045743267983198166, 0.03313152864575386], [0.06786154210567474, 0.061884306371212006, -0.09038401395082474],
    [-0.034761037677526474, -0.07254724949598312, 0.0011917989468201995], [-0.009505140595138073, -0.017066925764083862, -0.005608208477497101], [-0.08920002728700638, -0.004168349783867598, -0.0818592980504036],
    [0.02669384330511093, 0.05514318868517876, -0.05195287615060806], [0.04648168385028839, -0.0836990624666214, -0.04974206164479256], [-0.048449739813804626, 0.055403757840394974, 0.03397208824753761],
    [-0.04273311421275139, 0.007394562475383282, 0.029944967478513718], [-0.08317986875772476, -0.0022767619229853153, -0.01952243596315384], [0.031213542446494102, -0.0653204545378685, 0.003615054301917553],
    [-0.041168320924043655, 0.009129883721470833, -0.052141450345516205], [-0.033572159707546234, 0.0045253499411046505, 0.032583072781562805], [-0.07860158383846283, 0.015392928384244442, 0.015224001370370388],
    [0.06545247882604599, 0.0675596073269844, 0.07777100801467896], [0.03908136114478111, 0.06135154515504837, -0.048379573971033096], [0.0973663330078125, 0.04440529644489288, -0.020539870485663414],
    [-0.07336939871311188, -0.05195789411664009, 0.03989545628428459], [0.07294511049985886, -0.00962834618985653, 0.06838934868574142], [0.006109015084803104, -0.04743315652012825, -0.02569197490811348],
    [0.08220958709716797, 0.05175779387354851, -0.08553028106689453], [0.025427784770727158, -0.06298813223838806, -0.018042931333184242], [-0.02852368727326393, 0.05982697755098343, 0.022312570363283157],
    [0.03376351296901703, -0.05799958109855652, -0.013232235796749592], [0.03670896217226982, -0.053365062922239304, -0.061431802809238434], [0.07124257832765579, -0.06460055708885193, -0.09851190447807312],
    [0.05127095803618431, -0.012918786145746708, 0.013824274763464928], [0.0317937508225441, 0.014267915859818459, -0.02128421887755394], [0.052258338779211044, 0.002007371047511697, -0.009993578307330608],
    [0.00022910264669917524, -0.06783351302146912, 0.03325146064162254], [-0.03596458211541176, 0.017653688788414, 0.035694852471351624], [0.07028429955244064, 0.034218404442071915, 0.03553031384944916],
    [0.036550745368003845, 0.01519541721791029, 0.07584431767463684], [0.002110075671225786, -0.007736335042864084, 0.04614567011594772], [0.05745556205511093, -0.03657304123044014, -0.017502032220363617],
    [0.0027014019433408976, -0.0016371402889490128, -0.014035012573003769], [-0.009701590053737164, 0.006031145807355642, 0.038394488394260406], [-0.012370794080197811, -0.011331264860928059, 0.0007939914939925075],
    [-0.04610735923051834, -0.038754902780056, -0.040512751787900925], [0.05981950834393501, -0.055092256516218185, -0.022731734439730644], [-0.0033110117074102163, -0.06894225627183914, 0.019620360806584358],
    [0.006485874764621258, 0.0673573836684227, -0.014640232548117638], [-0.0522458553314209, -0.07944932579994202, -0.07867960631847382], [-0.026916271075606346, -0.03456025943160057, 0.0307611133903265],
    [0.0559861995279789, -0.057433582842350006, 0.03224368393421173], [-0.019176512956619263, -0.03160044178366661, 0.04871535301208496], [-0.06150944158434868, -0.060306478291749954, -0.04918424040079117],
    [0.05267586186528206, 0.07207594066858292, 9.92640052572824e-05], [0.031403038650751114, -0.03912055119872093, -0.06041323393583298], [-0.050073087215423584, 0.05281594768166542, 0.05540967732667923],
    [-0.06190933287143707, -0.001286576734855771, 0.0613693967461586], [0.08370359241962433, -0.037585366517305374, -0.10520146042108536], [0.034663788974285126, -0.03949831426143646, 0.046883679926395416],
    [0.03577004373073578, -0.07924769073724747, 0.0013703957665711641], [0.07756111770868301, -0.011054730042815208, 0.02744102291762829], [0.05438188835978508, -0.0039922334253787994, 0.07270541042089462],
    [-0.007769111543893814, 0.010847626253962517, -0.047301072627305984], [-0.04306187853217125, 0.04196730628609657, 0.04549168422818184], [-0.006065618246793747, 0.008169960230588913, 0.025112709030508995],
    [0.023767326027154922, -0.05508926138281822, 0.06930267065763474], [-0.052689600735902786, -0.08293382823467255, 0.022202840074896812], [0.044717393815517426, 0.019206395372748375, 0.05934838205575943],
    [-0.03018120676279068, 0.01348765380680561, -0.09804859012365341], [0.06369192153215408, 0.039804134517908096, 0.08213667571544647], [-0.014649315737187862, -0.07322464138269424, -0.04672699794173241],
    [-0.09403523802757263, 0.012096014805138111, 0.01257336512207985], [0.055835071951150894, -0.012102984823286533, 0.008958831429481506], [0.019302401691675186, -0.07228837162256241, -0.01637057401239872],
    [-0.0547129362821579, -0.019999615848064423, 0.013827664777636528], [-0.0028966867830604315, -0.012182827107608318, -0.047155484557151794], [0.00041380003676749766, 0.02762676030397415, -0.0545894093811512],
    [0.03824438527226448, -0.0732506662607193, 0.05669504404067993], [0.09084872901439667, -0.03788787126541138, 0.028767310082912445], [-0.000794622115790844, -0.06381594389677048, -0.028148921206593513],
    [-0.031377725303173065, -0.06929336488246918, -0.016627352684736252], [0.008892761543393135, 0.010356340557336807, 0.0697939544916153], [0.08990054577589035, 0.051836248487234116, -0.0841982364654541],
    [-0.02137734368443489, 0.04003389552235603, 0.04337190464138985], [0.05654436722397804, 0.03521069884300232, -0.09646781533956528], [0.07618366926908493, 0.016750739887356758, -0.04506982862949371],
    [-0.043038252741098404, 0.006540636997669935, -0.03443092107772827], [-0.013809705153107643, -0.0825076624751091, -0.002782090101391077], [-0.028162887319922447, -0.03821456432342529, -0.08993172645568848],
    [0.022337544709444046, -0.06555146723985672, 0.014269770123064518], [-0.07859189808368683, -0.06703338772058487, -0.0716666728258133], [0.08055126667022705, -0.07861548662185669, 0.04602950066328049],
    [0.02234911173582077, 0.03762374818325043, -0.0003817285178229213], [0.04585344344377518, -0.05469927191734314, -0.02301325462758541], [-0.013824332505464554, -0.05331160128116608, -0.04343820735812187],
    [0.07839033007621765, 0.050419505685567856, 0.04256186634302139], [-0.003248446388170123, 0.07098338007926941, -0.019662676379084587], [0.057859476655721664, -0.03544486686587334, 0.03522266820073128],
    [0.04042762890458107, -0.038104843348264694, 0.06391190737485886], [-0.03831224516034126, -0.018256647512316704, 0.06850346177816391], [-0.058218833059072495, 0.055377230048179626, 0.03236569091677666],
    [-0.0074120438657701015, -0.059206925332546234, -0.04340765252709389], [-0.029735226184129715, -0.008108778856694698, -0.042916733771562576], [-0.06768621504306793, 0.028881439939141273, -0.06852436065673828],
    [-0.035644616931676865, -0.027942923828959465, 0.021755969151854515], [-0.03190741688013077, 0.0670776218175888, 0.03016456589102745], [0.0774741917848587, 0.053300462663173676, 0.06057489663362503],
    [0.011982942000031471, -0.015215137042105198, -0.10183440148830414], [0.04016590863466263, -0.05096903443336487, -0.015778852626681328], [-0.005344620905816555, -0.01710222288966179, 0.0942922905087471],
    [-0.007565255276858807, 0.06851010769605637, -0.09690488874912262], [-0.040777839720249176, 0.0157131589949131, -0.049656376242637634], [-0.08139573037624359, -0.06255785375833511, 0.03862646594643593],
    [0.02054482139647007, 0.0406191386282444, -0.0017448756843805313], [-0.015874315053224564, 0.06418327242136002, -0.008479194715619087], [-0.012888816185295582, -0.0425337553024292, 0.044078610837459564],
    [-0.05755355581641197, 0.02007155306637287, 0.04308491200208664], [-0.021623406559228897, -0.019274987280368805, -0.04281747713685036], [-0.059835467487573624, 0.05158642679452896, -0.03171265870332718],
    [-0.008064770139753819, -0.03863602131605148, 0.01564067043364048], [0.06270628422498703, 0.07672017067670822, 0.05580373480916023], [-0.07769855856895447, 0.05289279669523239, -0.025912664830684662],
    [0.02965036779642105, -0.04379377141594887, -0.007394534070044756], [-0.0725456103682518, -0.05457630008459091, 0.020561736077070236], [-0.013824723660945892, 0.03374402970075607, 0.009613318368792534],
    [0.004570434335619211, 0.04634217917919159, -0.011685124598443508], [0.048076629638671875, 0.00735425716266036, -0.015309907495975494], [-0.059187956154346466, 0.002481959294527769, 0.01282799057662487],
    [0.04192943125963211, -0.045786257833242416, 0.0421612374484539], [0.03218194469809532, -0.018634960055351257, 0.04119044914841652], [-0.012514470145106316, -0.07751788944005966, 0.037880707532167435],
    [-0.028902076184749603, -0.011394089087843895, 0.013909203931689262], [-0.012113085947930813, 0.05337441340088844, -0.03647451847791672], [0.09154459834098816, 0.05661928281188011, 0.012790647335350513],
    [-0.08714192360639572, -0.018085967749357224, -0.06879989802837372], [0.08552669733762741, -0.039153557270765305, 0.08818500488996506], [0.09231220185756683, -0.0630636140704155, -0.05216020345687866],
    [-0.05377243086695671, -0.034470751881599426, -0.034145794808864594], [-0.016663625836372375, -0.015237577259540558, 0.06525300443172455], [0.010890137404203415, 0.06381714344024658, 0.051883406937122345],
    [0.032688237726688385, -0.020745448768138885, 0.010835343971848488], [0.02759031392633915, -0.06618596613407135, -0.05553095415234566], [0.032098282128572464, 0.06288357824087143, -0.019173257052898407],
    [0.03377643972635269, 0.012478385120630264, -0.08963847160339355], [-0.02904541790485382, 0.05209159106016159, -0.0340033583343029], [-0.07768527418375015, 0.020218100398778915, -0.04122928902506828],
    [-0.06896399706602097, -0.031830936670303345, -0.006108712404966354], [0.02869759127497673, -0.011505503207445145, -0.07165619730949402], [0.04047464579343796, -0.029524944722652435, -0.03251887485384941],
    [0.0793800875544548, -0.01745494082570076, 0.049525532871484756], [0.07796863466501236, -0.08265113085508347, 0.07558637857437134], [0.0747995600104332, 0.04785109683871269, -0.06320668011903763],
    [-0.07563533633947372, 0.06613883376121521, -0.01046257559210062], [0.014394673518836498, 0.022751662880182266, -0.04073907807469368], [-0.04275965690612793, -0.052118267863988876, -0.015246345661580563],
    [-0.06005252152681351, 0.019537899643182755, -0.044967103749513626], [-0.02728785201907158, -0.08359874784946442, 0.04286174476146698], [-0.04253945127129555, 0.05224824324250221, 0.000264125905232504],
    [-0.018916355445981026, -0.07234231382608414, 0.04234863445162773], [-0.031046204268932343, 0.054435741156339645, -0.0038625188171863556], [0.01884477585554123, -0.040274832397699356, -0.04563743993639946],
    [-0.013294938951730728, -0.09322471916675568, -0.031092528253793716], [0.05036330223083496, 0.04874797165393829, -0.02554781548678875], [-0.026434974744915962, 0.012250307947397232, 0.04046155884861946],
    [-0.05434087663888931, 0.05912378802895546, 0.014048764482140541], [0.0341983325779438, -0.06306347250938416, -0.06031467393040657], [0.025256114080548286, -0.049745507538318634, -0.06687095016241074],
    [-0.04245554283261299, -0.038461048156023026, -0.008958389982581139], [0.02355898544192314, -0.01412968710064888, -0.025937367230653763], [0.04305166378617287, -0.06761111319065094, -0.06786539405584335],
    [-0.000889424467459321, 0.025425970554351807, 0.08263591676950455], [-0.015623675659298897, 0.06343817710876465, -0.04950132966041565], [-0.0022078745532780886, 0.032363854348659515, -0.07273871451616287],
    [-0.01654239557683468, -0.001824449049308896, -0.09835883229970932], [0.06720287352800369, 0.07997862249612808, -0.017283106222748756], [-0.014996394515037537, -0.019084762781858444, -0.06658004969358444],
    [-0.016574639827013016, -0.034852948039770126, 0.07201936841011047], [0.08402557671070099, -0.00762402405962348, -0.09338852763175964], [-0.019029604271054268, -0.019769448786973953, 0.06467358022928238],
    [-0.008619467727839947, 0.0603221170604229, 0.059791550040245056], [-0.04864818602800369, -0.0646321251988411, -0.05061797425150871], [0.06987718492746353, 0.06267295032739639, 0.04077661409974098],
    [-0.06931599229574203, -0.04039421305060387, -0.04726240038871765], [0.05191280320286751, -0.0728178471326828, -0.0421970933675766], [0.019510431215167046, -0.05210156366229057, -0.0497608445584774],
    [-0.03624531254172325, 0.061468154191970825, -0.01261524111032486], [-0.07906170934438705, -0.024391787126660347, -0.07683874666690826], [0.015095408074557781, -0.0348527617752552, -0.05887221917510033],
    [0.06031089648604393, -0.026031337678432465, -0.05397528409957886], [0.018224898725748062, 0.02373390644788742, 0.026331420987844467], [0.11140228062868118, -0.07320328056812286, -0.02238522842526436],
    [0.015520523302257061, 0.02358744852244854, 0.09246234595775604], [-0.0494268499314785, -0.007610775064677, 0.020903674885630608], [-0.03162560611963272, 0.03373107686638832, -0.021098924800753593],
    [0.04758448526263237, -0.06841744482517242, -0.01976291462779045], [0.005857882089912891, -0.03688254952430725, -0.05725141614675522], [0.02761681005358696, 0.04652329906821251, -0.07871799170970917],
    [-0.06250105798244476, -0.04628491401672363, 0.06490121781826019], [0.06923834979534149, 0.008688936941325665, 0.05204145610332489], [-0.03795897215604782, -0.07151384651660919, -0.03787784278392792],
    [0.09385816752910614, -0.0702478364109993, -0.07040558755397797], [-0.04305308312177658, -0.054237671196460724, 0.020942797884345055], [0.08478295058012009, 0.019685372710227966, 0.026370001956820488],
    [-0.0220768041908741, -0.03433101251721382, -0.09406957775354385], [0.010295595973730087, -0.02515488862991333, -0.03401781991124153], [-0.030347421765327454, -0.07964104413986206, 0.0034315958619117737],
    [-0.01086555514484644, 0.013476557098329067, -0.07565993070602417], [0.009220072999596596, 0.016531944274902344, 0.0771680697798729], [-0.061962027102708817, 0.060567088425159454, -0.06483953446149826],
    [0.05298618599772453, 0.013759355060756207, -0.019312020391225815], [0.08848632872104645, -0.008145526982843876, -0.0529504120349884], [0.019099976867437363, -0.025914814323186874, -0.06374043971300125],
    [0.044329844415187836, 0.012725838460028172, 0.05733559653162956], [-0.006607115734368563, -0.06613310426473618, 0.061284951865673065], [-0.07341930270195007, -0.00480622099712491, 0.023284466937184334],
    [-0.05741701275110245, 0.04481145367026329, -0.0015406922902911901], [-0.07557416707277298, -0.05389895662665367, -0.04146492853760719], [-0.02275680936872959, 0.033946432173252106, -0.08013313263654709],
    [0.005765457637608051, 0.013640808872878551, 0.0711461752653122], [-0.08447756618261337, -0.08507771790027618, -0.021139124408364296], [0.030216259881854057, 0.04822106659412384, -0.0016736657125875354],
    [-0.0644858255982399, -0.012973237782716751, -0.054141126573085785], [-0.03119083121418953, -0.03091565892100334, -0.05860089883208275], [-0.04582909494638443, -0.02076898328959942, -0.0318731926381588],
    [-0.043473467230796814, -0.03061918169260025, -0.007923123426735401], [0.03636958822607994, 0.03122873231768608, 0.059426501393318176], [0.027979740872979164, -0.025044752284884453, 0.02920348010957241],
    [-0.0650496557354927, -0.07205209881067276, -0.026769420132040977], [-0.02032076194882393, -0.040114860981702805, 0.06923972070217133], [0.013635016046464443, 0.0250699482858181, -0.05051565170288086],
    [0.056197430938482285, -0.017388271167874336, -0.04971753805875778], [0.042998526245355606, -0.029523978009819984, -0.026967450976371765], [0.04656742513179779, -0.00422438932582736, -0.022706015035510063]
};

// Layer: layer2.1.bias (1D array)
static const float layer2_1_B[] = { -0.08041923493146896, -0.058321528136730194, 0.08248148113489151, -0.08119647949934006, -0.0697186291217804, -0.06473367661237717, -0.031832512468099594, 0.03268380090594292, 0.04825703799724579, 0.04659617319703102, -0.06863061338663101, -0.013966488651931286, -0.000523790658917278, 0.05611079931259155, 0.028918839991092682, -0.02527919039130211 };

// Layer: layer2.2.weight (1D array)
static const float layer2_2_W[] = { 1.03843092918396, 1.042328119277954, 1.0410631895065308, 1.0280779600143433, 1.033926248550415, 1.0392265319824219, 1.0400017499923706, 1.0428565740585327, 1.0405291318893433, 1.0398690700531006, 1.0357359647750854, 1.0426135063171387, 1.0355794429779053, 1.0424944162368774, 1.0354321002960205, 1.037191390991211 };

// Layer: layer2.2.bias (1D array)
static const float layer2_2_B[] = { 0.015997158363461494, 0.03123204968869686, 0.025145482271909714, 0.009924390353262424, 0.013815876096487045, 0.024630529806017876, 0.027408689260482788, 0.015922602266073227, 0.025328127667307854, 0.013908663764595985, 0.012376680970191956, 0.022449888288974762, 0.01895010657608509, 0.020732643082737923, 0.018966102972626686, 0.025518927723169327 };

// Layer: fc.weight (2D array)
static const float fc_W[][] = {
    -0.027686508372426033, -0.046273231506347656, 0.021835926920175552, 0.005156658589839935, -0.05675383284687996, 0.03013048693537712, -0.07543548941612244, -0.06982586532831192, 0.02309424988925457, 0.0030766515992581844, -0.011711090803146362, 0.07487742602825165, 0.005790503695607185, 0.025478145107626915, -0.008947408758103848, -0.03653617948293686, 0.017860518768429756, -0.004265945870429277, -0.05095140263438225, -0.004406887572258711, 0.04994988068938255, 0.031657539308071136, -0.08147191256284714, -0.02638893760740757, -0.014816096983850002, -0.051638729870319366, 0.07228922098875046, 0.053390685468912125, -0.02214231714606285, 0.05056331306695938, 0.05218349024653435, 0.027713743969798088, -0.007704336196184158, -0.017496082931756973, 0.013484730385243893, -0.03533865511417389, 0.03334490582346916, -0.03655847907066345, 0.018623318523168564, -0.0265498124063015, -0.043251339346170425, -0.059441547840833664, 0.001485429354943335, 0.05080550163984299, -0.02225000038743019, 0.04274051636457443, 0.07621694356203079, -0.06948011368513107, 0.0523977130651474, 0.0508747473359108, 0.0023807301186025143, -0.013497939333319664, 0.011449545621871948, -0.03605638071894646, -0.06336624920368195, -0.0423525832593441, 0.003172071650624275, -0.048910342156887054, 0.0015984189230948687, -0.050376489758491516, 0.016994157806038857, 0.0016026915982365608, 0.03106248378753662, -0.004145210143178701, -0.0029637636616826057, -0.02005540207028389, -0.01980144903063774, 0.0655384436249733, 0.057818032801151276, -0.008439538069069386, -0.0747259333729744, 0.04186469689011574, -0.0036025133449584246, -0.0061117056757211685, -0.014434936456382275, 0.003413504222407937, 0.033146776258945465, 0.04146721214056015, 0.003692004131153226, 0.033804863691329956, -0.05984698608517647, 0.04238855093717575, 0.062417544424533844, -0.047589261084795, 0.004286392591893673, 0.024232015013694763, 0.03378848731517792, -0.005448787938803434, 0.04825568199157715, -0.040178004652261734, 0.03499278053641319, -0.020340122282505035, -0.033313438296318054, -0.008165797218680382, 0.0009693169267848134, -0.05318634212017059, -0.010058294050395489, -0.05102961137890816, -0.046180594712495804, 0.04784753918647766, -0.05541504546999931, -0.004036904312670231, -0.04560432955622673, -0.024964874610304832, 0.0067910123616456985, -0.06198818236589432, -0.025261739268898964, 0.0134025439620018, 0.025823315605521202, 0.0022067036479711533, -0.07457593828439713, -0.058591436594724655, -0.031782764941453934, 0.040428612381219864, -0.011204061098396778, -0.01976344734430313, -0.022363673895597458, 0.008507641963660717, -0.029294315725564957, 0.03638945519924164, 0.03188011795282364, 0.017583150416612625, 0.0025570569559931755, -0.004800839349627495, -0.06202465295791626, -0.006357157602906227, 0.013025298714637756, -0.0033349550794810057, 0.00017505431605968624, 0.026931455358862877, -0.03945787623524666, -0.06649933755397797, 0.005053244065493345, 0.011607999913394451, 0.020372889935970306, 0.04044565558433533, 0.018512757495045662, -0.05161894112825394, -0.013740363530814648, -0.02743961103260517, -0.004544868599623442, 0.05934615805745125, 0.025159429758787155, -0.05733311548829079, 0.02210192196071148, 0.05762723088264465, -0.0020629309583455324, 0.04286697506904602, 0.047100845724344254, -0.015886377543210983, 0.0053736488334834576, 0.06740009039640427, 0.026177696883678436, -0.016211465001106262, 0.031987566500902176, -0.06076478213071823, -0.05037884786725044, -0.007212465163320303, 0.03905990347266197, -0.009743831120431423, -0.009811829775571823, -0.0012017333647236228, 0.011039111763238907, -0.020896906033158302, -0.015299414284527302, 0.007112650666385889, 0.04239654913544655, 0.03809603676199913, 0.03023354336619377, -0.008717271499335766, -0.06393736600875854, 0.02423480525612831, -0.03899763524532318, 0.0069428482092916965, -0.025524990633130074, -0.019140880554914474, 0.03781129792332649, -0.017627250403165817, 0.010688054375350475, -0.03790529817342758, -0.04907955601811409, -0.057663239538669586, -0.03992233797907829, -0.03207990899682045, 0.030319694429636, -0.017580971121788025, 0.07727279514074326, 0.017509721219539642, -0.00185864488594234, 0.019252588972449303, -0.08476924151182175, -0.05637172609567642, 0.052541278302669525, -0.04208676517009735, -0.06585010141134262, 0.053629253059625626, -0.00024221924832090735, -0.05243300646543503, 0.0015602493658661842, -0.035286225378513336, 0.041855957359075546, -0.03142424672842026, 0.038033995777368546, -0.02585163712501526, 0.04765775054693222, -0.036708980798721313, 0.02762499265372753, -0.02591809630393982, 0.013864874839782715, 0.03805834427475929, -0.007996036671102047, 0.06393351405858994, -0.01608196087181568, 0.07306617498397827, -0.07086080312728882, -0.07585161924362183, -0.03309931606054306, -0.015917645767331123, -0.026212632656097412, -0.06615488231182098, -0.03205547481775284, -0.008205628022551537, -0.00885223038494587, -0.02436934784054756, 0.034300994127988815, 0.05207183584570885, 0.0024162703193724155, 0.04612702503800392, -0.003055186476558447, 0.040162838995456696, 0.016745636239647865, 0.007404084783047438, -0.00034541459172032773, 0.018165932968258858, 0.034803472459316254, 0.0399240218102932, -0.02941204607486725, 0.05709968879818916, -0.04176325350999832, -0.05254749581217766, 0.014482656493782997, 0.0044149053283035755, -0.00416579470038414, -0.006602811627089977, 0.0380132757127285, -0.07957539707422256, -0.06285494565963745, -0.00018541327153798193, 0.011759468354284763, -0.043280571699142456, -0.000785332580562681, 0.05355179309844971, 0.024465300142765045, -0.011083316057920456, 0.02358165942132473, 0.009858832694590092, 0.03986605256795883, 0.033910296857357025, 0.03478877618908882, 0.008697768673300743, -0.04172441363334656, 0.07252877205610275, -0.054015688598155975, 0.022266773506999016, -0.026158655062317848, 0.00908344704657793, 0.018209507688879967, 0.03167188912630081, -0.060231875628232956, -0.07198750972747803, 0.02213830128312111, -0.014345000497996807, 0.011929349042475224, 0.021110858768224716, 0.05906108394265175, -0.0004688563058152795, 0.04913916811347008, -0.008879460394382477, 0.00952546764165163, 0.006486779544502497, 0.03494664281606674, -0.03814338147640228, -0.02818680740892887, 0.043867651373147964, -0.03845091164112091, 0.021353039890527725, 0.012593921273946762, 0.06147870793938637, -0.011697143316268921, -0.032854218035936356, -0.05158145725727081, 0.011217232793569565, 0.05546855926513672, 0.04908023029565811, -0.03242567181587219, -0.034601952880620956, -0.003108280710875988, -0.021053597331047058, 0.03318207338452339, 0.04816669970750809, -0.012870747596025467, -0.04180501401424408, -0.06264303624629974, 0.021907463669776917, 0.02538367174565792, -0.006702027749270201, -0.04417961835861206, -0.017484528943896294, 0.005329078063368797, 0.05439940467476845, -0.053649477660655975, -0.00459730438888073, -0.05772938206791878, -0.011033078655600548, 0.012067090719938278, -0.04250727966427803, -0.02359488420188427, -0.030037982389330864, 0.012970306910574436, 0.03721911832690239,
    0.0324590839445591, -0.01349650975316763, 0.06121757626533508, -0.029527874663472176, 0.055195875465869904, -0.06665333360433578, -0.031797029078006744, -0.04639081284403801, 0.020815938711166382, -0.043388474732637405, 0.07404700666666031, -0.05142976716160774, 0.007255180273205042, -0.007504669018089771, 0.017399322241544724, -0.0447949580848217, 0.04140140861272812, -0.002467905171215534, -0.033832255750894547, 0.03012457676231861, -0.0700034350156784, -0.0070676314644515514, 0.053849343210458755, 0.055498771369457245, -0.04849013686180115, -0.030118832364678383, 0.016182424500584602, 0.04926632344722748, -0.016492513939738274, -0.008021251298487186, 0.008868720382452011, 0.004071787465363741, 0.0080829206854105, 0.06089027225971222, 0.055100224912166595, -0.021077821031212807, 0.011625779792666435, 0.055894020944833755, 0.07944372296333313, -0.020550083369016647, -0.04264318197965622, -0.02077794261276722, 0.047655507922172546, 0.037743065506219864, 0.007802779786288738, 0.07915516942739487, -0.0030590470414608717, 0.014823252335190773, 0.06558652222156525, 0.01739112101495266, 0.06492168456315994, 0.02632647007703781, 0.026406554505228996, 0.04827442020177841, -0.0121025824919343, 0.055796004831790924, 0.02774464152753353, 0.01050520408898592, 0.0454227589070797, -0.0195400919765234, 0.0355851911008358, -0.0009203698136843741, -0.05201137438416481, -0.08257542550563812, 0.0022210257593542337, 0.03280401974916458, 0.021620284765958786, 0.015787750482559204, -0.029000576585531235, -0.003791416995227337, -0.01016288809478283, -0.015969354659318924, -0.026767345145344734, -0.05882611125707626, 0.014524145051836967, -0.046612177044153214, 0.006291917059570551, -0.020978936925530434, -0.04069133475422859, -0.009403211064636707, 0.0415327288210392, -0.04453113302588463, 0.0027213036082684994, 0.02775949239730835, -0.0533737875521183, -0.0008748198742978275, -0.02553374506533146, -0.07227658480405807, 0.030363399535417557, 0.016438351944088936, -0.06241977959871292, -0.016592076048254967, -0.02319920063018799, -0.029480814933776855, -0.004631953313946724, 0.07160308212041855, -0.008996956050395966, 0.007276785559952259, -0.03684058040380478, 0.002774422522634268, 0.055905599147081375, 0.015900347381830215, 0.026179173961281776, -0.012555449269711971, -0.026765314862132072, 0.04936935007572174, -0.05661971867084503, -0.053776852786540985, -0.04864072427153587, -0.002947543514892459, -0.06499812006950378, -0.016745001077651978, -0.06378170847892761, -0.04693673551082611, -0.026240171864628792, -0.01538083702325821, -0.06738343089818954, 0.03423942252993584, -0.04048547521233559, -0.024606354534626007, 0.011076520197093487, -0.07495931535959244, 0.08316602557897568, 0.010154529474675655, 0.033537253737449646, -0.04906952753663063, 0.0585038922727108, -0.049117960035800934, 0.01865050569176674, -0.06223056837916374, 0.07509151846170425, -0.025312073528766632, -0.04589833319187164, 0.026592953130602837, 0.022119978442788124, -0.036815859377384186, -0.038422346115112305, 0.025252101942896843, 0.06313028931617737, 0.028757398948073387, 0.028854286298155785, -0.02146618254482746, -0.02891332097351551, -0.052531562745571136, 0.010620500892400742, -0.0015985267236828804, 0.05864522233605385, 0.037867624312639236, 0.038360223174095154, -0.022646941244602203, 0.04464725777506828, -0.0560910739004612, -0.04640398547053337, 0.01541171781718731, 0.06486287713050842, -0.06200554594397545, -0.005583515856415033, -0.03515012934803963, -0.06178855150938034, 0.037928156554698944, 0.028895052149891853, -0.044079847633838654, 0.049299828708171844, -0.028938764706254005, -0.06384827196598053, -0.034355565905570984, -0.02981947921216488, -0.009692369028925896, 0.003736285027116537, 0.04818570241332054, -0.014569568447768688, 0.012242130935192108, 0.03016471117734909, 0.01888766512274742, -0.0397636778652668, -0.020239705219864845, -0.0078086708672344685, -0.03977760672569275, 0.033099059015512466, 0.002895024139434099, -0.020222259685397148, 0.016517093405127525, 0.007872906513512135, 0.02873443253338337, -0.04217027872800827, -0.04043659567832947, -0.01653418317437172, -0.04227008298039436, 0.0008433443144895136, -0.08529610186815262, -0.0195933785289526, -0.05213405191898346, 0.022128107026219368, -0.014187258668243885, -0.054220590740442276, 0.00044271667138673365, 0.01651180535554886, 0.0013382700271904469, -0.0423821359872818, -0.028956705704331398, -0.02984187752008438, -0.027097513899207115, -0.0205256175249815, -0.016806580126285553, -0.004401092883199453, 0.051994290202856064, -0.013798813335597515, -0.028614111244678497, -0.05920752137899399, -0.040630042552948, 0.01682317815721035, 0.046270210295915604, -0.0429295152425766, -0.05064886063337326, 0.03710873797535896, 0.01850942336022854, -0.0454862155020237, -0.012885084375739098, 0.0474780909717083, -0.07058119028806686, 0.038333870470523834, 0.0043886154890060425, 0.008292295970022678, 0.056583698838949203, 0.04039338603615761, 0.0014076416846364737, 0.08100391924381256, 0.07154971361160278, 0.030579201877117157, -0.016839707270264626, 0.07650035619735718, 0.005421883426606655, -0.02806420996785164, 0.0482928566634655, 0.0038456034380942583, -0.024483464658260345, -0.031829774379730225, 0.014467749744653702, 0.03016713447868824, 0.015387896448373795, 0.0582384318113327, 0.037390321493148804, 0.09395714849233627, 0.022919395938515663, -0.026156112551689148, -0.0174530241638422, 0.016766758635640144, -0.023075126111507416, 0.04415491595864296, 0.03284452110528946, -0.062222179025411606, 0.02470366656780243, -0.04537096619606018, -0.007120192516595125, 0.062122710049152374, 0.02416735701262951, 0.021483421325683594, -0.02640737034380436, 0.03419143334031105, -0.046173568814992905, 0.048039015382528305, -0.0409616194665432, 0.048805899918079376, -0.0838538184762001, -0.01635655388236046, -0.009928548708558083, -0.057392675429582596, -0.005578778218477964, -0.07337131351232529, 0.020629094913601875, -0.03044210374355316, 0.021729325875639915, 0.045914459973573685, 0.025133831426501274, 0.033348605036735535, 0.06450100243091583, -0.03370341286063194, -0.029003264382481575, 0.032433975487947464, -0.028522612527012825, -0.04335397481918335, 0.00789743009954691, -0.048045817762613297, -0.019961168989539146, -0.02886846289038658, -0.07074624300003052, 0.03978532925248146, 0.02335662767291069, 0.03767700493335724, -0.0034425680059939623, -0.031365033239126205, -0.006965075619518757, -0.0823388323187828, -0.021401630714535713, 0.02493222989141941, -0.048222970217466354, 0.04983975738286972, -0.03109421581029892, -0.062362510710954666, 0.04243119806051254, 0.010903594084084034, -0.06216861307621002, 0.04715265333652496, -0.009452306665480137, -0.019132498651742935, -0.04077265039086342, 0.06086597219109535, -0.027215680107474327, -0.056914325803518295, 0.05420101806521416, 0.00201048725284636, 0.02729344367980957, -0.009668258018791676, 0.020961664617061615, -0.05941493809223175, -0.044887155294418335, -0.007460529915988445, 0.017351901158690453, 0.06479748338460922, -0.03731048107147217,
